20004 10
081109 1.292056 -0.561560 -0.536885 0.059091 -0.348668 1.319418 1.630215 -0.971342 -0.523664 1.334418
dest: 1.095298 -0.801670 -0.551303 -0.347219 -0.040449 0.340147 0.284461 0.881440 1.443707 0.171521
Receiving 1.409317 -1.008012 -0.565434 -0.578381 0.001470 0.178852 -0.141252 0.888633 1.355591 0.185042
to -0.886017 -2.620827 -0.787223 2.680499 -1.779048 4.834166 3.304209 -3.110919 -5.443516 3.505317
of 0.209402 0.159695 -0.214619 -0.079173 0.576903 -0.931038 1.573231 0.175168 0.702837 -0.413623
Received 0.432534 0.486301 -0.181358 -0.179009 0.785912 -1.395882 1.677605 0.048522 0.516755 -0.687815
NameSystem.addStoredBlock: -1.058711 -2.805941 -0.636780 2.917255 -1.853369 5.246892 3.496949 -3.043765 -5.663726 3.579366
blockMap -1.020470 -2.858349 -0.687857 3.081262 -1.863354 5.325875 3.515289 -3.132460 -5.634501 3.611352
updated: -0.980411 -2.867125 -0.687284 3.024615 -1.869795 5.347949 3.487418 -3.209992 -5.603429 3.670527
is -0.928132 -2.721981 -0.771040 2.807514 -1.809418 5.032212 3.362339 -3.057524 -5.461934 3.536574
added -0.937963 -2.569836 -0.699471 2.744295 -1.715237 4.714109 3.354162 -3.000342 -5.460392 3.408505
PacketResponder 4.267750 0.768641 -1.466214 -1.649122 0.477573 0.540190 0.627297 -2.825430 -0.803078 1.464465
terminating 4.697525 1.137388 -1.552416 -1.588996 0.542638 0.915931 0.661880 -3.288395 -0.886873 1.700553
from 0.232527 0.115928 -0.200230 0.000245 0.562319 -0.845672 1.548552 0.216216 0.795595 -0.458401
67108864 0.122766 0.076042 -0.236168 0.040576 0.484926 -0.821309 1.522989 0.144987 0.775890 -0.417626
BLOCK* -1.029707 -2.837220 -0.715663 3.095275 -1.925560 5.175442 3.439062 -3.127571 -5.581554 3.572518
2 4.674995 0.989764 -1.540802 -1.650899 0.706299 0.801759 0.653043 -3.490583 -1.159111 1.656338
0 4.764365 1.035237 -1.580770 -1.751431 0.718057 0.539688 0.553661 -3.350892 -1.015371 1.537238
1 4.702611 1.096133 -1.593696 -1.776091 0.781702 0.613049 0.582139 -3.286457 -1.092736 1.590856
35 -1.492400 -2.871611 -1.009414 4.226375 -2.300186 6.184596 4.419866 -3.537124 -7.194029 4.230153
31 -1.270484 -2.888535 -0.858421 3.950981 -2.287513 5.898550 3.854950 -2.849358 -6.194798 3.755082
30 -1.143350 -2.687896 -0.952102 3.603729 -2.165851 5.520511 3.614692 -2.581782 -5.548352 3.442233
29 -0.940090 -2.676008 -0.677202 3.437919 -2.105712 5.083771 3.342110 -2.081770 -4.598853 2.880366
27 -0.293603 -2.209430 -0.851849 2.151868 -1.762545 3.936452 2.090180 -0.911793 -2.513418 2.017076
33 -1.417969 -2.831200 -1.128877 4.105435 -2.400762 6.346257 4.174906 -3.383138 -7.069766 4.093254
32 -1.309404 -2.954505 -0.989371 4.127101 -2.460272 6.261896 4.108555 -3.366199 -6.687290 3.952036
28 -0.614589 -2.413268 -0.798482 2.802986 -1.972299 4.593559 2.726183 -1.351506 -3.595726 2.437740
34 -1.393454 -2.863487 -1.084838 4.280124 -2.382926 6.208910 4.242509 -3.607166 -7.033180 4.163274
26 -0.159894 -2.117616 -0.804571 1.820549 -1.626887 3.359489 1.704241 -0.459159 -1.602805 1.590052
13 2.898178 -1.061199 -2.074804 0.569031 -2.864208 1.066412 2.150184 2.011652 0.848904 0.956958
succeeded 1.758504 0.085467 -1.524706 1.143556 -2.041696 -0.508849 3.208625 1.376167 -0.285418 0.084412
Served -13.624357 2.793125 -5.109685 -1.994428 3.961136 -6.013351 15.344026 -3.518859 0.530413 -4.465510
10.250.11.100:50010 1.867186 2.326503 -0.190467 0.155772 0.755127 -3.909091 1.865017 -1.766479 -3.718364 -1.548402
10.251.197.226:50010 1.826173 2.270322 -0.253973 0.160477 0.636941 -3.883575 1.840124 -2.034757 -4.169751 -1.405853
204556 -3.399043 -3.576839 0.437376 -8.513138 -0.300868 3.469622 6.003909 4.729240 0.696350 -1.928527
10.251.39.179:50010 1.651076 2.193384 0.039805 0.538066 0.878054 -3.479881 2.100165 -1.758390 -4.521117 -1.234050
10.251.215.16:50010 1.256058 1.795143 -0.227375 0.938840 0.825553 -2.609360 1.955643 -2.058907 -5.056618 -0.585937
10.251.74.79:50010 1.559969 2.095124 -0.189728 0.772067 0.891204 -2.925323 1.900538 -2.238360 -4.698073 -1.012815
10.251.71.193:50010 1.562542 1.759393 -0.135092 0.684309 0.778789 -3.194232 1.580438 -1.990059 -5.068610 -0.742832
10.251.195.70:50010 1.498475 1.585137 -0.319415 0.810259 0.625143 -2.014022 1.691879 -2.117939 -5.121264 -0.205447
10.251.66.63:50010 1.632162 1.694954 -0.116785 0.504691 0.857131 -3.014746 1.419995 -2.412170 -5.316540 -0.367515
204638 -3.184692 -1.783575 -0.420690 -6.314882 3.755548 4.110122 5.164773 6.534252 0.702372 -0.066482
10.250.14.224:50010 1.595722 1.944365 -0.107501 0.728183 0.677849 -3.121590 1.906434 -2.052535 -4.660097 -0.987168
10.251.111.209:50010 1.497967 1.871251 -0.249217 0.868307 0.712043 -2.687608 1.873239 -2.231876 -4.602165 -0.728918
10.251.71.240:50010 1.293755 1.712824 -0.194033 1.207363 0.718385 -2.175764 2.023253 -2.395213 -5.255414 -0.487805
/10.251.31.85:50010 6.049114 3.911321 -1.610319 -2.400744 1.929583 -2.733890 1.106788 -3.043818 0.530170 -0.777999
/10.251.29.239:50010 6.317892 3.753645 -1.515610 -2.657872 1.914531 -3.038300 0.674182 -3.109410 0.620941 -0.789907
/10.251.43.21:50010 6.070605 3.761889 -1.394038 -2.562900 1.901703 -2.630141 1.086088 -3.241070 0.289122 -0.711682
10.251.121.224:50010 1.480441 1.267060 -0.149084 1.205222 0.524911 -1.909995 1.706233 -2.300372 -5.163007 -0.223114
10.251.39.192:50010 1.256301 1.480658 -0.162843 1.006854 0.518700 -2.091389 1.862947 -2.262723 -5.126520 -0.365036
10.251.74.134:50010 1.466448 1.503297 -0.218473 1.035535 0.551627 -2.230683 1.785203 -2.533251 -5.154089 -0.267214
blk_-1608999687919862906 -6.236927 -2.078134 3.147356 -1.525155 -0.471954 -0.778522 12.065403 -2.387645 -0.150406 -7.695246
/10.251.203.149:50010 6.148547 3.925427 -1.561529 -2.554480 1.897071 -2.926966 1.032637 -3.076272 0.641551 -0.919564
/10.251.125.174:50010 6.042922 4.058405 -1.483613 -2.305979 2.121312 -3.138682 1.136720 -2.907080 0.514205 -0.930934
/10.250.6.4:50010 6.127309 4.139313 -1.497267 -2.405467 2.186315 -3.129353 1.281013 -2.944378 0.610876 -1.009847
/10.251.42.207:50010 6.200356 3.909138 -1.470114 -2.390987 1.957650 -3.189875 0.971714 -2.972859 0.876983 -1.059348
/10.251.105.189:50010 6.201560 3.819176 -1.537975 -2.276669 1.839832 -2.702268 1.034869 -2.665224 0.865754 -0.734673
/10.251.195.70:50010 5.972953 4.089341 -1.762458 -2.215281 1.790963 -2.624218 1.320242 -3.002397 0.331319 -0.640700
/10.251.43.210:50010 6.313349 3.833540 -1.547628 -2.764800 1.851353 -2.832834 0.919275 -2.930520 0.611350 -0.749172
/10.251.38.197:50010 5.882015 4.051785 -1.469624 -2.307138 2.056835 -3.034007 1.209427 -2.950851 0.636997 -0.898294
/10.251.29.239 8.096904 0.722199 -2.382428 -3.314238 0.434712 1.610881 -2.269159 -3.558929 0.696187 2.090612
/10.250.14.224:50010 6.004081 3.906012 -1.269748 -2.267311 1.920208 -2.920810 1.339838 -3.097933 0.272882 -0.681992
/10.250.17.225:50010 6.270643 3.717764 -1.648125 -2.577579 1.823587 -2.824053 0.813133 -2.935495 0.615834 -0.548337
/10.251.214.67:50010 6.251435 3.879437 -1.581731 -2.571659 1.923127 -3.006983 0.875979 -3.030404 0.620955 -0.813375
/10.251.90.81:50010 6.335356 4.308207 -1.711042 -2.585226 2.119423 -3.152659 0.963924 -3.029825 0.551840 -0.897898
/10.250.15.240:50010 6.211945 3.924695 -1.416243 -2.516994 2.022343 -2.560360 1.082583 -3.194244 0.311022 -0.849695
10.251.123.20:50010 1.576396 1.332003 -0.175067 0.862468 0.582958 -2.024396 1.541733 -2.320709 -4.988525 -0.185586
204415 -1.014256 -6.959088 3.455136 -1.839848 2.122685 3.310561 3.696065 0.309720 1.581286 2.398975
205636 -6.099421 -5.027636 0.087407 2.928400 3.520094 3.255921 0.521873 -6.771037 2.336495 -2.942887
155 -2.081872 -1.393065 -2.487732 2.486769 -3.904133 0.009351 6.649686 10.735457 -1.016202 -1.564741
/10.250.5.161:50010 6.255748 3.896500 -1.591824 -2.528625 1.841358 -2.866354 0.861230 -2.969638 0.638225 -0.795450
10.251.126.83:50010 1.497378 1.385425 0.075862 0.936760 0.778555 -2.488544 1.642316 -2.225479 -4.863588 -0.489392
/10.251.215.16:50010 5.597913 4.058789 -1.460763 -2.132449 1.943818 -2.839935 1.484320 -3.303122 0.046839 -0.736746
/10.250.17.225 7.818871 0.631148 -2.373899 -3.139311 0.428162 1.965575 -2.169326 -3.175159 0.708033 2.130441
10.251.31.5:50010 1.407536 1.749063 -0.322876 0.984565 0.481770 -2.408700 1.893427 -2.352610 -4.904250 -0.653358
/10.251.126.83:50010 6.091486 3.740344 -1.453880 -2.215955 1.761738 -2.767316 1.170566 -3.011188 0.728974 -0.847250
/10.251.67.113:50010 6.125257 3.892723 -1.491284 -2.673895 2.054871 -3.066158 0.758556 -3.099658 0.696564 -0.871087
/10.251.75.163:50010 6.565471 3.799508 -1.479214 -2.862196 1.964096 -2.952439 0.505838 -3.090962 0.846424 -0.829169
/10.251.111.130:50010 6.392198 3.899069 -1.528925 -2.420751 1.913607 -2.998453 0.859752 -2.850635 0.926432 -0.890946
/10.251.110.160:50010 5.945846 3.698834 -1.764941 -2.595299 1.659407 -2.340011 0.954342 -2.732762 0.352689 -0.442776
10.251.90.81:50010 1.544572 1.624660 -0.314502 0.845010 0.611729 -2.248953 1.592993 -2.378325 -5.227106 -0.319385
10.251.107.19:50010 1.542150 1.931074 -0.066921 1.033672 0.898338 -2.824502 1.996548 -2.045895 -4.616119 -0.900315
/10.251.31.85 7.945918 0.806862 -2.416838 -3.220663 0.497231 1.791071 -2.128528 -3.483873 0.697243 2.092231
/10.251.111.209:50010 6.028749 4.035109 -1.464718 -2.158432 1.930638 -3.013673 1.429824 -3.096464 0.493473 -0.828445
/10.250.13.240:50010 6.159789 4.151348 -1.655607 -2.697416 1.956105 -3.314970 1.002134 -3.319379 0.628277 -0.941682
/10.251.199.159:50010 6.414290 3.716133 -1.551656 -2.621390 1.708728 -2.597943 0.797355 -2.989974 0.588463 -0.605162
10.251.105.189:50010 1.314849 1.455221 -0.120203 0.954436 0.797023 -2.444521 1.544655 -2.292860 -4.728451 -0.549093
10.251.110.8:50010 1.388197 1.567577 -0.274799 0.834637 0.625443 -2.130727 1.743337 -2.392503 -5.095222 -0.305312
/10.250.14.196:50010 6.006780 3.952586 -1.546932 -2.545363 2.065564 -2.588164 0.863671 -3.172917 0.432082 -0.784068
/10.251.125.174 7.641936 0.622491 -2.262343 -2.820991 0.369247 1.696044 -1.992911 -3.180459 0.874983 1.906448
/10.251.195.70 7.798032 0.667173 -2.381234 -3.005604 0.324934 1.863565 -2.087412 -3.089415 0.929598 1.925107
/10.251.123.20:50010 6.220899 3.753233 -1.657988 -2.547155 1.561216 -2.397750 1.131643 -3.005318 0.604062 -0.614300
/10.251.90.239:50010 6.184452 3.972335 -1.445118 -2.459722 1.982178 -3.429605 1.134922 -3.047971 0.636619 -0.912431
/10.251.42.191:50010 5.909172 3.962300 -1.608878 -2.251056 1.872944 -3.019692 1.338315 -3.079125 0.360148 -0.772465
/10.251.123.132:50010 5.905769 3.677087 -1.630339 -2.694338 1.762444 -2.442871 0.813618 -2.991612 0.444868 -0.573165
/10.251.121.224:50010 6.346234 3.442748 -1.449215 -2.302324 1.827541 -2.544054 0.723614 -3.166054 0.652448 -0.401113
/10.251.74.79:50010 6.066402 4.049789 -1.463347 -2.196247 1.934405 -3.081445 1.398064 -3.182751 0.355844 -0.795121
/10.251.107.19:50010 6.182977 4.091310 -1.437400 -2.026595 1.760060 -3.160545 1.774308 -3.042605 0.629545 -0.834316
/10.251.67.113 7.746887 0.650047 -2.338795 -3.333281 0.402229 1.634221 -2.153771 -3.554934 0.490079 2.090325
/10.251.43.210 7.850963 0.566518 -2.309105 -3.183745 0.348158 1.529314 -2.224269 -3.267261 1.038887 1.927134
/10.251.214.67 7.974211 0.580839 -2.434705 -3.267215 0.476152 1.633043 -2.394037 -3.365551 1.066960 1.999339
/10.251.127.243:50010 6.117323 3.669456 -1.532989 -2.633544 1.908842 -2.865254 0.894918 -2.983348 0.764537 -0.786826
/10.251.42.84:50010 5.883816 3.379011 -1.670624 -2.062998 1.554871 -2.176560 1.033463 -3.190895 0.499930 -0.374340
/10.250.17.177:50010 6.074608 3.657214 -1.535731 -2.259068 1.775973 -2.634974 1.007708 -2.869704 0.624841 -0.678121
/10.251.90.81 7.910165 0.696608 -2.445562 -3.053139 0.325830 1.649729 -2.167837 -3.345127 0.809858 2.033305
/10.251.105.189 8.007965 0.327942 -2.380383 -2.724607 0.078783 1.954996 -2.089206 -3.265228 0.983300 2.310489
/10.251.123.99:50010 6.242585 3.830918 -1.735709 -2.307397 1.738357 -2.707629 0.910397 -2.934505 0.672356 -0.591479
/10.250.5.161 7.963026 0.647939 -2.354088 -2.964159 0.268025 1.580366 -2.206633 -3.212207 1.056924 1.853960
/10.250.6.4 7.756258 0.767598 -2.125487 -2.998793 0.450356 1.451402 -2.045058 -3.106320 1.008043 1.750174
/10.251.197.161:50010 5.972742 4.228533 -1.631975 -2.363307 1.903504 -3.123048 1.559874 -3.179580 0.409796 -0.994630
10.251.31.85:50010 1.256685 1.664710 -0.162355 0.836576 0.884908 -1.969218 1.733977 -2.331420 -5.440661 -0.466653
/10.251.75.163 7.950467 0.716584 -2.063138 -3.322514 0.729120 1.085956 -2.532143 -3.238569 1.116828 1.715378
/10.251.43.21 7.808796 0.411482 -2.220344 -3.216148 0.422990 1.890275 -2.449308 -3.560877 0.886183 2.001703
/10.251.31.242:50010 5.927865 4.012263 -1.329986 -2.273480 1.994853 -3.227956 1.367556 -3.237962 0.553788 -1.009856
/10.251.199.225:50010 6.238935 4.120402 -1.634459 -2.578194 1.968367 -3.135640 1.149240 -3.003058 0.740290 -0.930363
/10.251.70.211:50010 5.893641 4.079081 -1.538497 -2.411053 1.946886 -3.136765 1.406614 -3.119179 0.482569 -0.810677
/10.251.39.179:50010 6.088871 3.879596 -1.304145 -2.333428 1.722513 -2.820256 1.144378 -3.094913 0.544336 -0.765997
/10.250.11.53:50010 6.090506 3.929508 -1.548674 -2.525606 1.960203 -2.976651 1.124782 -2.873397 0.725155 -0.835416
10.251.193.175:50010 1.411298 1.512108 -0.085203 1.098015 0.610503 -2.520073 1.783284 -2.282026 -5.147488 -0.499467
10.250.10.176:50010 1.472446 1.517706 -0.096573 0.731543 0.837116 -2.675070 1.349771 -2.175708 -4.805654 -0.474016
/10.250.14.224 7.403533 0.513975 -2.072649 -2.789223 0.240837 1.650480 -1.711603 -3.176455 0.713224 1.841851
/10.251.31.5:50010 5.939724 4.112335 -1.592757 -2.182354 1.739022 -2.973749 1.701800 -3.086466 0.291987 -0.627243
/10.251.203.149 7.759234 0.565100 -2.385713 -3.093280 0.313331 1.977961 -2.131869 -3.291013 0.814456 2.142314
/10.251.30.134:50010 6.106495 3.618313 -1.661951 -2.784735 1.848246 -2.534843 0.719702 -3.062243 0.311739 -0.459104
/10.251.110.160 7.849250 0.358364 -2.562129 -3.006849 0.161987 2.556713 -2.092023 -3.247691 0.667843 2.474144
/10.251.31.160:50010 6.051867 3.942984 -1.556001 -2.426835 2.065603 -2.840036 1.271628 -3.176153 0.407865 -0.671506
/10.251.111.37:50010 6.005467 3.546889 -1.509505 -2.136292 1.790986 -2.263618 1.053431 -2.912469 0.493008 -0.494706
/10.251.201.204:50010 6.112822 3.855632 -1.653036 -2.416396 1.856030 -3.011794 0.945928 -3.043269 0.622191 -0.847491
/10.251.65.237:50010 6.034565 3.822050 -1.422713 -2.418552 1.944477 -2.757290 1.048971 -3.125529 0.660256 -0.807661
/10.251.193.224:50010 6.136717 3.697495 -1.425183 -2.512487 1.866677 -2.801256 1.114482 -3.072344 0.481582 -0.661741
/10.251.111.228:50010 6.246352 3.783692 -1.624044 -2.308980 1.802136 -2.846767 0.677400 -3.224918 0.671939 -0.601286
/10.251.109.209:50010 5.915591 4.137133 -1.493838 -2.438590 2.122848 -3.268174 1.121360 -3.094881 0.486822 -1.016504
/10.251.199.159 8.127613 0.690010 -2.296308 -3.307215 0.439272 1.522505 -2.433522 -3.235980 1.034957 1.939155
/10.251.110.8:50010 5.992942 3.964820 -1.585147 -2.503587 1.820553 -2.882499 1.459835 -3.133423 0.413344 -0.717193
/10.251.194.102:50010 5.919018 4.162977 -1.592131 -2.374429 2.146162 -3.139022 1.002491 -3.041031 0.373361 -0.922427
/10.251.71.68:50010 5.812923 3.956508 -1.505314 -2.359096 1.893326 -3.206144 1.284102 -3.135444 0.340645 -0.830035
10.251.27.63:50010 1.416537 1.375374 -0.045322 0.965381 0.565933 -2.189652 1.651817 -2.284858 -4.908219 -0.440973
10.251.214.67:50010 1.674347 1.600474 -0.282805 0.717646 0.636793 -2.322661 1.515384 -2.433999 -4.890252 -0.370384
204628 -2.493843 -2.632066 -0.251159 -7.719629 3.332224 1.357287 4.296849 6.826312 1.904576 0.742067
210102 -0.036526 0.038942 0.047034 -0.029561 0.034915 0.010457 0.039032 -0.042372 0.010361 -0.031602
/10.251.42.207 7.662776 0.608956 -2.344291 -3.005293 0.395618 1.687609 -2.258767 -3.482356 1.053856 1.925640
/10.251.111.130 8.270891 0.657899 -2.294694 -3.024448 0.441407 1.458961 -2.380113 -3.203497 1.301904 1.842068
/10.251.65.203:50010 6.150694 3.819852 -1.490627 -2.402750 1.943162 -3.074616 1.149993 -3.039472 0.787699 -0.829454
/10.251.125.237:50010 6.176507 3.903107 -1.488810 -2.608497 2.047018 -3.211534 0.914997 -3.000702 0.721691 -0.843269
/10.251.74.134:50010 6.069051 3.915759 -1.656488 -2.329247 1.692513 -2.588671 1.040022 -2.841177 0.431484 -0.624987
/10.251.215.70:50010 5.885843 3.671633 -1.510762 -2.479871 1.924874 -2.553260 0.939414 -3.014803 0.306280 -0.612661
/10.251.106.37:50010 6.121804 3.599849 -1.524806 -2.504050 1.738472 -2.735939 0.739690 -3.107363 0.662455 -0.670537
/10.251.193.175:50010 6.043489 3.760190 -1.527955 -2.080143 1.699322 -2.684451 1.234447 -2.962042 0.501658 -0.579005
/10.251.195.52:50010 5.924130 3.534906 -1.565120 -2.450365 1.858885 -2.776851 0.632318 -3.198770 0.591942 -0.659771
/10.251.38.197 7.793944 0.491671 -2.192291 -2.935821 0.300509 1.601206 -2.146219 -3.285614 1.047486 1.898374
/10.250.13.188:50010 5.974065 3.932904 -1.716897 -2.386338 1.887739 -3.074332 1.091918 -3.028148 0.897751 -0.944755
/10.251.39.192:50010 6.078043 3.702764 -1.808590 -2.153844 1.559427 -2.571045 1.194076 -2.760895 0.862992 -0.733979
/10.251.199.150:50010 6.215931 4.109587 -1.500806 -2.507793 2.073797 -3.316378 1.066214 -3.006804 0.678482 -0.912285
10.251.123.99:50010 1.490639 1.503052 -0.320691 0.963117 0.654822 -2.277480 1.596837 -2.256223 -4.861473 -0.402045
10.251.75.79:50010 1.374374 1.675323 -0.280662 0.970088 0.803621 -2.633674 1.629319 -2.431063 -5.056874 -0.582362
10.251.75.49:50010 1.436365 1.457145 -0.205928 0.804696 0.701426 -2.222955 1.492443 -2.519183 -5.270073 -0.289471
/10.251.74.192 7.953523 0.580516 -2.227981 -2.981283 0.198342 1.966712 -1.903685 -3.323675 0.850297 2.003717
/10.250.18.114:50010 6.017770 3.851552 -1.547311 -2.287480 2.001706 -2.927600 1.078601 -3.375190 0.305683 -0.618445
/10.251.123.132 7.949732 0.254892 -2.430522 -3.256000 0.284786 2.358413 -2.302594 -3.712889 0.487642 2.577055
/10.251.74.192:50010 6.200120 3.474424 -1.323750 -2.288983 1.774474 -2.236859 0.970603 -3.008653 0.613060 -0.601864
/10.251.67.211:50010 5.913453 3.920361 -1.588743 -2.528579 1.867103 -2.715448 1.063192 -3.200050 0.326916 -0.741158
/10.251.43.192:50010 6.151613 3.814837 -1.274350 -2.567713 2.035060 -2.813278 1.133790 -3.239952 0.464744 -0.894528
/10.251.122.38:50010 6.122385 3.720401 -1.589319 -2.350745 1.853235 -2.646796 0.845381 -3.008786 0.720925 -0.616713
/10.250.15.240 7.678890 0.729758 -2.167255 -2.847367 0.337971 1.858883 -1.691334 -3.592557 0.616484 2.011015
10.251.66.102:50010 1.263424 1.582390 -0.279067 0.935757 0.889912 -2.083732 1.633716 -2.111899 -5.356629 -0.340410
10.251.65.203:50010 1.546462 1.465847 -0.093506 0.533928 0.640941 -2.288018 1.422344 -2.461736 -5.428108 -0.354565
10.250.5.161:50010 1.620175 1.502114 -0.200110 0.959036 0.589126 -2.227501 1.608996 -2.260129 -4.888144 -0.385064
10.250.17.177:50010 1.298445 1.293265 -0.135292 1.127165 0.441946 -2.078853 1.633122 -2.051526 -4.844618 -0.469601
10.251.111.228:50010 1.346431 1.732966 -0.324826 1.006745 0.685089 -2.229568 1.649923 -2.403251 -5.129404 -0.494974
10.251.71.146:50010 1.467351 1.283106 -0.183317 0.764417 0.539940 -1.963835 1.610413 -2.333379 -5.262460 -0.138963
10.250.10.6:50010 1.873563 2.093090 -0.113970 0.124264 0.941555 -3.461549 1.626988 -2.118992 -4.283478 -1.053460
/10.250.14.196 7.758427 0.557315 -2.348992 -3.160276 0.213741 1.974747 -2.183517 -3.308057 0.776519 1.964368
/10.251.30.134 7.571354 0.838308 -2.485129 -3.356565 0.545911 2.036529 -1.875430 -3.920046 0.048423 2.333082
/10.251.126.83 7.853979 0.478036 -2.295908 -2.761066 0.157794 1.955083 -1.892942 -3.125213 0.926408 2.015206
/10.251.193.224 7.646260 0.520615 -2.248443 -2.992791 0.308046 2.003913 -2.012790 -3.417237 0.552006 2.232265
/10.251.66.63:50010 6.346320 3.871555 -1.493784 -2.579655 1.929695 -2.954882 0.900488 -3.053568 0.725008 -0.836880
/10.251.111.228 8.054597 0.468115 -2.494624 -3.062053 0.168544 2.156732 -2.429281 -3.506909 0.826027 2.196134
/10.251.31.180:50010 6.106259 3.380230 -1.423240 -2.450075 1.884014 -2.288497 0.844093 -3.069999 0.521432 -0.303170
/10.251.202.181:50010 5.872465 3.853992 -1.480473 -2.297324 1.875426 -2.743566 1.348225 -3.036391 0.441998 -0.684590
/10.251.110.196:50010 6.011936 3.616667 -1.523464 -2.529833 1.755785 -2.396834 0.721793 -3.063607 0.428230 -0.588604
/10.251.38.214:50010 5.960082 3.965431 -1.528257 -2.355049 1.942450 -2.979384 1.267411 -2.917921 0.498857 -0.715942
/10.251.27.63:50010 6.256827 4.002759 -1.578068 -2.432235 1.967963 -2.832039 1.173507 -3.008685 0.601531 -0.686101
/10.250.10.176:50010 6.238801 3.653902 -1.543297 -2.595391 1.797258 -2.675196 0.711429 -3.047691 0.492060 -0.575700
/10.251.106.50:50010 5.652634 4.060711 -1.618557 -2.289452 2.061935 -2.796900 1.283619 -2.877836 0.166795 -0.732050
/10.251.199.19:50010 6.313671 3.920463 -1.511358 -2.586701 2.103957 -3.250204 0.707038 -2.951061 0.763059 -0.876458
10.251.203.149:50010 1.593861 1.451995 -0.264697 0.707820 0.675024 -2.092114 1.401517 -2.471258 -5.175313 -0.238088
10.251.70.5:50010 1.615394 1.470812 -0.080503 0.697248 0.772338 -2.376793 1.402615 -2.447147 -5.192898 -0.349095
10.251.199.225:50010 1.484737 1.521831 -0.414107 0.886955 0.376729 -1.910400 1.581452 -2.106918 -4.943681 -0.375976
10.251.39.144:50010 1.561616 1.493712 -0.039172 0.596430 0.844368 -2.545027 1.589914 -2.334414 -4.788536 -0.545539
10.251.110.196:50010 1.491105 1.175224 -0.011771 0.949742 0.530462 -2.021454 1.329015 -2.276263 -5.053211 -0.345823
10.251.107.196:50010 1.351383 1.570104 -0.204985 0.885125 0.726427 -2.404870 1.598832 -2.322117 -5.033223 -0.529905
/10.251.127.243 7.755351 0.703381 -2.252677 -3.020217 0.443074 1.692638 -1.894507 -3.382243 0.767452 1.912091
/10.251.31.160 7.564201 0.638158 -2.401170 -3.070293 0.307266 1.826107 -1.907823 -3.409931 0.551773 2.133205
/10.251.126.5:50010 5.857023 3.582022 -1.259001 -2.409814 1.819531 -2.891394 1.234135 -2.908000 0.586446 -0.783270
/10.251.106.37 7.962393 0.373390 -2.433667 -3.388467 0.290504 1.961080 -2.444525 -3.611849 1.098418 2.057340
/10.251.111.37 7.841201 0.376484 -2.282588 -2.763249 0.273834 2.411403 -2.141718 -3.045490 0.821453 2.305630
/10.251.75.228:50010 6.181966 4.002978 -1.551170 -2.661916 2.089437 -3.331405 0.830868 -2.973261 0.700349 -1.017737
/10.251.123.195:50010 6.149667 3.824345 -1.622068 -2.579720 1.897257 -2.625260 0.912353 -2.996268 0.568267 -0.685863
/10.251.121.224 7.829090 0.520195 -2.244655 -2.812748 0.362007 1.857432 -2.064168 -3.650873 0.724417 2.146430
/10.250.13.240 7.673494 0.721012 -2.485895 -3.216937 0.294022 1.482773 -2.218525 -3.380005 0.865447 1.997251
/10.251.91.229:50010 5.949407 3.506852 -1.415340 -2.385742 2.063010 -2.736514 0.639584 -3.062537 0.668452 -0.517672
10.251.111.37:50010 1.443220 1.408562 -0.063123 0.846560 0.751471 -2.057902 1.363999 -2.216260 -4.969010 -0.416198
10.251.30.101:50010 1.470365 1.412727 -0.098212 0.868390 0.638553 -1.953531 1.565807 -2.310994 -5.245638 -0.342523
10.251.42.191:50010 1.420269 1.546958 -0.249187 0.849595 0.704208 -2.368468 1.679155 -2.280204 -5.109929 -0.296702
10.251.111.130:50010 1.662763 1.565630 -0.112393 0.608386 0.516730 -2.339844 1.491997 -2.176118 -4.365735 -0.650644
10.251.30.179:50010 1.494407 1.542906 -0.195799 0.889145 0.660267 -2.092180 1.767800 -2.475688 -5.291424 -0.276364
10.251.42.84:50010 1.380268 1.245806 -0.239159 0.998971 0.670173 -1.706429 1.586231 -2.618865 -5.350557 0.037234
10.251.42.9:50010 1.349474 1.420467 -0.135629 0.942635 0.614636 -2.013670 1.636389 -2.387757 -5.489231 -0.420352
204308 -3.341708 -7.215080 2.656288 0.898342 6.484191 0.120416 1.305621 0.079075 0.324764 5.095779
204733 -4.598695 0.138961 0.784626 -2.327249 7.636801 3.558553 6.368103 5.154226 0.595556 -1.537647
/10.251.215.16 7.265777 0.612135 -2.059539 -2.697781 0.207001 1.835002 -1.804382 -3.265763 0.685759 1.853115
/10.251.197.226:50010 5.992686 3.765860 -1.289301 -2.082534 1.713491 -2.731837 1.308134 -2.702113 0.725558 -0.831187
/10.250.7.244:50010 5.954321 3.835987 -1.368174 -2.597002 2.039700 -3.164507 1.064271 -3.184506 0.592217 -0.890232
/10.251.107.19 7.800121 0.770388 -2.095275 -2.950680 0.328519 1.051016 -2.011761 -3.127883 1.310580 1.596379
/10.251.123.20 8.303220 0.496057 -2.559382 -3.061036 0.081107 2.034383 -2.365902 -3.399534 1.164674 2.149145
/10.251.71.68 7.524064 0.925009 -2.181935 -2.957930 0.485669 1.388483 -1.810654 -3.468613 0.637094 1.812294
/10.251.39.64:50010 6.224556 3.678162 -1.425485 -2.334463 1.871418 -2.701487 0.838954 -3.105300 0.558401 -0.688605
/10.251.215.50:50010 5.923825 3.954855 -1.371239 -2.354397 1.978426 -3.360494 1.437041 -3.021548 0.716261 -0.852510
/10.251.66.102:50010 5.971710 3.895459 -1.601927 -2.257295 1.808364 -2.973660 1.341468 -2.755860 0.680273 -0.743251
/10.251.30.101:50010 5.952406 3.650977 -1.520955 -2.454400 1.755717 -2.467207 0.966621 -2.842678 0.480648 -0.507996
/10.251.122.79:50010 5.847315 3.820105 -1.697797 -2.365112 1.810945 -2.856630 1.009680 -2.980218 0.612930 -0.743993
/10.251.71.146:50010 6.018150 3.816939 -1.659435 -2.432515 1.715543 -2.677412 1.126467 -3.121231 0.282957 -0.557723
/10.251.90.134:50010 6.174424 3.771147 -1.514531 -2.427842 1.755433 -2.695473 1.046646 -3.090046 0.618769 -0.668975
/10.250.6.214:50010 6.096220 3.551779 -1.714139 -2.682292 1.702239 -2.288871 0.692949 -3.081143 0.415028 -0.460102
/10.250.5.237:50010 6.079586 3.919426 -1.605826 -2.403983 2.005887 -2.779696 1.112769 -2.891094 0.508726 -0.585979
/10.250.10.213:50010 6.189675 3.448004 -1.709414 -2.653388 1.406716 -2.480130 0.796654 -2.958689 0.731215 -0.492483
/10.251.37.240:50010 6.143557 3.545258 -1.368833 -2.409111 1.713789 -2.679760 0.865301 -3.139079 0.680126 -0.603785
/10.251.26.8:50010 6.022997 4.014215 -1.674616 -2.364470 1.871945 -2.809500 1.283130 -3.025956 0.471169 -0.741327
10.250.17.225:50010 1.317982 1.390583 -0.219322 0.938109 0.483482 -2.184959 1.496237 -2.076844 -4.943967 -0.435492
10.251.214.18:50010 1.514529 1.394228 -0.177283 0.626734 0.828949 -2.169849 1.313436 -2.298445 -5.285246 -0.134838
10.251.73.188:50010 1.480675 1.787307 -0.205594 1.021397 0.762766 -2.312042 1.731309 -2.140033 -5.153577 -0.498998
10.250.5.237:50010 1.319699 1.574490 -0.124909 0.993865 0.798906 -2.129877 1.627269 -1.909814 -4.810649 -0.531655
10.251.199.159:50010 1.480628 1.408234 -0.014419 0.583877 0.866403 -2.507335 1.336978 -2.189854 -4.996985 -0.429544
10.251.197.161:50010 1.450943 1.583869 -0.154893 0.735069 0.720511 -2.316588 1.623964 -2.291807 -5.130797 -0.438540
204722 -4.183667 0.092589 -0.663387 -4.079137 7.161973 3.031607 4.165185 5.035822 1.346982 -1.070634
154 -2.126887 -0.866768 -2.998514 1.999400 -3.927305 -0.556269 6.600975 10.616041 -0.584408 -1.965684
/10.251.31.242 7.589454 0.523035 -2.145000 -2.909007 0.268402 1.862168 -1.838036 -3.618353 0.589144 2.035695
/10.251.39.179 7.517366 0.805436 -2.059994 -2.667206 0.394003 1.098083 -1.779311 -3.088768 1.031221 1.700298
/10.251.66.192:50010 5.919922 4.068428 -1.628464 -2.474785 2.086295 -3.189068 1.166675 -2.906417 0.668175 -0.941279
/10.251.111.80:50010 5.881350 3.465019 -1.381008 -2.578248 1.749601 -2.716814 1.029818 -2.989303 0.596993 -0.593640
/10.251.30.179:50010 5.928588 3.884975 -1.509667 -2.204198 1.736922 -2.773423 1.500277 -3.039213 0.429004 -0.697919
/10.251.70.211 8.016982 0.507924 -2.430506 -3.238580 0.259756 1.666853 -2.345709 -3.341960 1.033527 2.020618
/10.251.90.239 7.944793 0.649533 -2.101780 -3.054031 0.474203 1.352280 -2.104510 -3.291567 1.091265 1.822993
/10.251.126.255:50010 6.179359 3.783425 -1.507579 -2.633503 2.006273 -2.916087 0.856222 -2.953476 0.563736 -0.714807
/10.251.110.196 7.967408 0.436542 -2.099650 -3.079267 0.421648 1.790569 -2.411730 -3.363086 0.915947 1.815198
/10.251.110.8 7.693208 0.307493 -2.390490 -3.011351 0.136252 2.104703 -2.185229 -3.253013 0.832528 2.325188
/10.250.15.101:50010 5.887692 3.847594 -1.493577 -2.447876 2.036410 -2.960830 1.137663 -3.075594 0.439816 -0.574949
/10.251.197.161 7.518147 0.586132 -2.358849 -2.977926 0.229577 2.044586 -1.982410 -3.352050 0.625869 2.022295
/10.251.39.242:50010 6.245424 3.591751 -1.605876 -2.638361 1.867576 -2.597836 0.538557 -2.862780 0.638186 -0.534673
/10.251.71.193:50010 6.146561 3.498117 -1.226017 -2.171083 1.732288 -2.594509 0.989053 -3.110265 0.381966 -0.602602
/10.251.91.84:50010 6.030372 3.840464 -1.436158 -2.485630 1.997538 -2.892908 1.175047 -3.078756 0.591474 -0.835551
10.251.31.242:50010 1.459672 1.465354 -0.078353 0.795051 0.642263 -2.397277 1.527505 -2.589007 -5.269691 -0.453721
10.250.11.194:50010 1.535794 1.333782 -0.304389 0.996389 0.440237 -2.115503 1.474285 -1.892737 -4.481711 -0.406264
10.251.203.4:50010 1.468151 1.215252 -0.269055 1.038954 0.369090 -1.686751 1.784297 -2.182304 -4.948229 -0.147481
10.251.75.143:50010 1.465284 1.641785 -0.163746 0.733005 0.852492 -2.298092 1.623790 -2.462614 -5.301562 -0.374984
10.251.43.147:50010 1.383499 1.656642 -0.175450 0.689580 0.725365 -2.388358 1.636575 -2.479659 -5.155983 -0.427412
10.251.75.163:50010 1.727918 1.642552 -0.159361 0.574954 0.915208 -2.831116 1.360864 -2.466586 -5.138010 -0.284069
10.250.15.240:50010 1.368809 1.497232 0.061407 0.600044 0.914937 -2.512369 1.321222 -2.044712 -4.863994 -0.719884
203843 -5.771180 -5.655485 -3.228926 -2.487656 0.257954 -6.161458 1.682948 0.744698 2.480557 3.991952
/10.251.71.16:50010 6.132313 4.040057 -1.433124 -2.427287 2.034808 -3.163350 1.243323 -3.189799 0.579410 -0.885842
/10.251.65.203 7.694978 0.772176 -2.198086 -3.141243 0.547715 1.364899 -2.138314 -3.238829 0.953530 1.701939
/10.250.17.177 7.683239 0.503042 -2.148692 -2.752836 0.316415 1.673404 -1.859404 -3.301450 0.815930 2.020213
/10.251.42.84 7.910577 0.180577 -2.333225 -2.721867 0.009544 2.459124 -2.016621 -3.451297 0.817269 2.423705
/10.251.42.191 7.819375 0.580982 -2.371302 -3.049564 0.270485 1.752439 -2.173273 -3.386973 0.692428 2.128479
/10.251.123.99 8.042143 0.678936 -2.320002 -3.058577 0.262902 1.504429 -2.223201 -3.240991 0.983174 1.828497
/10.251.89.155:50010 6.166734 3.653288 -1.419869 -2.520498 1.801227 -2.839291 0.851720 -2.922941 0.804153 -0.884208
/10.251.27.63 7.761761 0.547980 -2.172269 -2.993150 0.239485 2.015895 -1.991687 -3.338076 0.570333 2.037486
/10.251.39.192 7.649874 0.456245 -2.399657 -2.664620 -0.064193 1.958136 -1.714822 -3.251935 1.019330 2.112853
/10.251.73.220:50010 5.929724 3.835001 -1.347780 -2.445664 1.930141 -2.952777 1.340443 -2.999819 0.466277 -0.805165
/10.251.37.240 7.860593 0.537257 -2.252445 -2.990171 0.303822 1.869747 -2.160920 -3.234190 1.003927 1.937576
/10.251.107.242:50010 6.120942 3.894151 -1.681591 -2.343439 1.758382 -3.034662 1.003439 -3.004860 0.724797 -0.898806
/10.251.214.32:50010 6.215975 3.755253 -1.393332 -2.346174 1.705904 -3.076243 1.083344 -2.994797 0.952688 -1.082007
/10.250.11.85:50010 5.803841 4.136683 -1.635742 -2.156364 1.947415 -3.260775 1.334899 -2.913193 0.748786 -1.176186
/10.250.7.230:50010 5.830498 3.833745 -1.396568 -2.313275 1.842125 -2.791635 1.477220 -3.018483 0.364681 -0.673245
/10.250.10.176 7.968550 0.657529 -2.548519 -3.297308 0.300430 1.580341 -2.514115 -3.166242 0.962353 2.071859
/10.251.70.5:50010 5.905987 3.901656 -1.368007 -2.246403 2.068683 -2.942516 1.207176 -3.087176 0.425915 -0.782948
/10.250.5.237 7.555398 0.859047 -2.352904 -2.993151 0.532894 1.717930 -1.860067 -3.289824 0.776359 1.984380
10.250.19.16:50010 1.401881 1.395629 -0.202546 0.969209 0.433071 -2.438741 1.609631 -1.969544 -4.825219 -0.446056
10.250.7.230:50010 1.356913 1.400892 -0.137971 0.987209 0.511688 -2.106332 1.691940 -2.237814 -5.206407 -0.396732
10.251.66.192:50010 1.484241 1.679289 -0.149472 1.008118 0.819029 -2.560928 1.750443 -2.413334 -5.049007 -0.368555
/10.251.111.209 7.766453 0.733335 -2.147606 -2.694500 0.443926 1.507180 -1.757798 -3.221502 0.861498 1.924186
/10.251.125.237 7.674643 0.477903 -2.352238 -3.163684 0.325641 1.841348 -2.295926 -3.387319 0.704617 2.152871
/10.251.202.181 7.594328 0.596789 -2.028666 -2.752962 0.301077 1.617873 -1.731021 -3.364089 0.864151 1.818767
/10.251.75.228 7.593102 0.955423 -2.284495 -3.337149 0.661459 1.120606 -2.307138 -3.452065 0.609452 1.778562
/10.251.122.38 7.813459 0.480958 -2.359477 -3.128572 0.417273 1.925419 -2.249665 -3.174545 0.796682 2.126105
/10.251.74.134 7.867710 0.618931 -2.394471 -2.772069 0.269272 2.052732 -2.029198 -3.119653 0.989308 1.971381
/10.251.71.240:50010 5.808402 3.765197 -1.434928 -2.198897 1.866985 -2.273793 1.297705 -3.142849 0.375920 -0.603435
/10.251.67.4:50010 6.212956 3.689538 -1.633015 -2.673386 1.883342 -2.964003 0.668034 -3.055500 0.660583 -0.483339
/10.251.214.18:50010 6.370220 3.545659 -1.491406 -2.583243 1.860969 -2.463946 0.572806 -2.990791 0.779846 -0.610471
/10.251.91.229 7.587598 0.454381 -2.214928 -3.003883 0.446586 1.715079 -2.322321 -3.597839 0.678547 2.178432
/10.251.42.246:50010 6.047923 3.547567 -1.599117 -2.274702 1.812876 -2.607755 0.813824 -3.185979 0.579056 -0.552698
/10.251.214.130:50010 5.953828 3.640515 -1.598401 -2.397961 1.778115 -2.984536 1.091755 -2.887366 0.632500 -0.624510
/10.250.14.143:50010 6.147813 3.788409 -1.627703 -2.429639 1.815198 -2.999627 0.915016 -2.946163 0.782781 -0.821050
/10.250.13.188 7.851559 0.621047 -2.411620 -2.938745 0.296417 1.712862 -2.010338 -3.372619 0.992858 2.074478
/10.251.110.68:50010 6.082541 3.905881 -1.418550 -2.485982 1.923715 -3.375956 1.084891 -2.954301 0.758165 -0.941151
/10.250.7.146:50010 6.033651 3.601038 -1.555328 -2.435423 1.722218 -2.512754 0.826613 -2.872535 0.831849 -0.672288
/10.251.26.8 7.805759 0.514679 -2.364946 -3.026800 0.080083 1.970806 -1.927977 -3.216382 1.031308 1.963830
/10.251.70.112:50010 6.319056 3.478137 -1.701633 -2.724848 1.701836 -2.592415 0.535726 -2.793663 0.841768 -0.436591
/10.251.198.33:50010 6.122962 3.808043 -1.609672 -2.631393 1.766909 -2.519410 1.015701 -3.109500 0.380769 -0.611199
/10.251.35.1:50010 6.212499 3.739546 -1.387251 -2.256744 2.020198 -2.443515 1.186082 -2.730921 0.726822 -0.746818
/10.250.10.144:50010 6.397911 3.432393 -1.397964 -2.407118 1.725720 -2.370275 0.767447 -3.012245 0.798019 -0.485301
/10.251.198.196:50010 6.017041 3.582673 -1.710196 -2.483182 1.597064 -2.342193 0.890947 -2.868056 0.613069 -0.624620
10.251.30.6:50010 1.530165 1.392571 -0.081005 0.792126 0.920933 -2.263681 1.388567 -2.165209 -4.950513 -0.238287
10.251.122.79:50010 1.359399 1.564986 -0.109309 0.914163 0.818332 -2.484035 1.623132 -2.347068 -4.685477 -0.509746
10.251.199.86:50010 1.541903 1.503401 -0.218169 0.762152 0.690074 -2.433662 1.622013 -2.043089 -4.906672 -0.435956
10.251.91.84:50010 1.293806 1.401255 -0.410651 0.995710 0.617241 -2.095859 1.426582 -2.510922 -5.424587 -0.078339
10.251.70.37:50010 1.427080 1.355671 -0.093674 0.845325 0.649206 -2.318347 1.572781 -2.446970 -5.026269 -0.315482
10.251.43.192:50010 1.605415 1.520044 -0.197501 0.713477 0.805325 -2.475410 1.491041 -2.714356 -5.031349 -0.356494
204651 -3.278164 -1.537086 0.044293 -5.690478 5.639984 4.051039 4.696300 6.755728 1.023844 -0.134307
/10.250.10.6:50010 5.914395 3.856706 -1.366077 -2.176971 1.751118 -2.914882 1.626634 -2.966784 0.316107 -0.718851
10.250.14.196:50010 1.489662 1.201091 -0.085146 0.765673 0.563862 -2.284411 1.418794 -2.383926 -5.099790 -0.220093
/10.250.18.114 7.453701 0.645905 -2.291207 -2.943841 0.420130 1.713249 -1.792759 -3.439356 0.507872 2.245071
/10.251.199.225 7.971239 0.848660 -2.306290 -3.279899 0.482728 1.437890 -2.230255 -3.145220 1.142109 1.705989
/10.251.31.5 7.663969 0.455628 -2.418001 -3.016471 0.133746 1.960738 -1.996889 -3.345662 0.741677 2.149450
/10.251.66.63 7.910150 0.908464 -2.173602 -3.277831 0.617864 1.108954 -2.309567 -3.098291 1.125943 1.568711
/10.251.126.5 7.515265 0.267695 -2.312677 -3.175191 0.152863 2.162284 -2.197290 -3.620340 0.514966 2.300841
/10.251.65.237 7.869886 0.626868 -2.316828 -3.022365 0.378438 2.110361 -1.887273 -3.681353 0.458353 2.300968
/10.251.75.79:50010 5.894492 3.932204 -1.531244 -2.011206 2.135858 -3.025172 1.181812 -2.976336 0.670014 -0.722877
/10.250.19.227:50010 5.929380 3.543254 -1.541780 -2.734905 1.733769 -2.685083 0.763253 -2.987347 0.565143 -0.625471
/10.251.193.175 7.870464 0.370138 -2.409148 -2.877711 0.137749 2.089623 -2.094440 -3.219365 1.081301 2.140707
/10.251.195.52 7.654722 0.195232 -2.284604 -3.119609 0.287792 1.990623 -2.240019 -3.871712 0.700262 2.273566
/10.251.43.115:50010 5.903641 4.013677 -1.544721 -2.355966 2.007932 -3.159633 1.453146 -2.907507 0.493736 -0.843805
/10.251.194.245:50010 5.996189 3.992870 -1.491570 -2.087697 1.773847 -3.204692 1.574215 -3.071879 0.696479 -1.007830
/10.251.38.214 7.558470 0.598942 -2.266494 -3.011385 0.402541 1.847726 -1.896832 -3.591783 0.417567 2.234013
/10.251.90.134 8.015483 0.445825 -2.356464 -3.020690 0.147825 1.982778 -2.027692 -3.180915 0.867731 2.102083
/10.251.194.213:50010 6.082645 3.720303 -1.632247 -2.511981 1.832065 -2.800408 0.859429 -3.191578 0.573596 -0.656484
/10.250.11.194:50010 6.419349 3.723822 -1.596962 -2.469298 1.853904 -2.539381 0.890757 -2.755780 0.846924 -0.539157
/10.251.199.245:50010 5.882440 3.747004 -1.457026 -2.367162 1.864148 -2.736461 1.176194 -2.947357 0.552997 -0.674524
/10.250.7.32:50010 5.852663 3.890295 -1.622557 -2.491462 1.994091 -2.897795 0.983074 -3.075148 0.522642 -0.742581
/10.250.6.214 8.074972 0.418755 -2.349396 -3.232517 0.202940 2.112339 -2.245048 -3.437982 0.723138 2.199212
10.251.67.113:50010 1.516009 1.408585 -0.124228 0.599922 0.752440 -2.576840 1.286983 -2.454910 -4.977653 -0.423365
10.251.122.38:50010 1.536254 1.388631 -0.286967 0.686619 0.704164 -2.274098 1.276468 -2.237291 -4.906085 -0.263523
10.251.26.8:50010 1.570324 1.411006 -0.281291 0.739313 0.447814 -2.144372 1.376083 -1.958020 -4.730992 -0.480422
10.250.11.85:50010 1.457411 1.400557 -0.120195 0.947438 0.586424 -2.334448 1.575272 -2.168556 -4.525701 -0.547403
10.251.126.227:50010 1.521918 1.617622 -0.256818 0.825055 0.791077 -2.554165 1.304190 -2.123719 -4.685730 -0.597706
10.251.194.129:50010 1.382291 1.391789 -0.253037 1.012072 0.493139 -2.155209 1.516322 -2.002115 -4.890619 -0.418360
10.251.39.64:50010 1.544912 1.423328 -0.131194 0.604769 0.735956 -2.309094 1.408273 -2.352670 -4.847065 -0.398439
10.250.6.191:50010 1.586835 1.559327 -0.251762 0.733112 0.647525 -2.335362 1.445545 -2.433513 -4.690478 -0.544847
/10.250.7.244 7.602625 0.767880 -2.296898 -3.213769 0.538984 1.333424 -2.130835 -3.585286 0.653912 1.932738
153 -1.755457 -0.802646 -2.877479 1.826500 -3.619215 -0.720162 5.999821 10.464859 -0.568899 -1.835350
/10.251.201.204 8.008407 0.623352 -2.433979 -3.125164 0.173379 2.004847 -2.251644 -3.364760 0.776898 2.161404
/10.251.67.211 7.335545 0.716609 -2.302411 -3.057825 0.303253 1.947280 -1.769054 -3.784558 0.045989 2.278500
/10.251.126.227:50010 6.059229 3.886904 -1.621464 -2.320368 1.992375 -2.956572 0.901164 -3.045611 0.606699 -0.689163
/10.251.30.85:50010 5.814600 3.665777 -1.406707 -2.543347 1.933604 -2.901697 0.912040 -3.363468 0.376689 -0.778828
/10.251.74.79 7.836608 0.682384 -2.317179 -3.094191 0.359140 1.371902 -2.279974 -3.127951 1.314316 1.566532
/10.250.19.16:50010 6.108779 3.791917 -1.594051 -2.135917 1.741646 -2.905300 0.979151 -2.893115 0.751648 -0.864295
/10.251.203.129:50010 5.858864 3.425974 -1.612351 -2.149466 1.572586 -2.328320 1.215453 -3.091817 0.510215 -0.306151
/10.251.39.144:50010 6.131791 3.707578 -1.646059 -2.432730 1.725410 -2.629817 0.809734 -3.164038 0.626135 -0.599361
/10.250.10.223:50010 5.665578 3.661569 -1.680028 -2.411464 1.875940 -2.245740 1.006682 -3.031202 0.143902 -0.371808
/10.251.71.193 7.777286 0.488689 -2.120642 -3.025638 0.290690 1.463306 -2.197917 -3.277391 1.157018 1.859321
/10.251.194.102 7.491453 0.835158 -2.350135 -2.995783 0.470096 1.814756 -1.983123 -3.496789 0.436645 1.998504
/10.250.6.191:50010 5.921512 3.858014 -1.467055 -2.335882 2.065765 -3.026139 1.277339 -3.136546 0.514593 -0.642637
/10.251.203.179:50010 6.060176 3.943681 -1.553438 -2.505646 2.069819 -3.132523 1.080709 -3.059015 0.486452 -0.780500
10.251.67.4:50010 1.531458 1.496062 -0.339683 0.584148 0.685070 -2.283074 1.358082 -2.263369 -5.123774 -0.106979
10.250.7.32:50010 1.347030 1.410543 -0.256169 0.943242 0.709547 -2.333068 1.267681 -2.083304 -4.556796 -0.436242
10.251.91.159:50010 1.304732 1.418244 -0.086970 1.041623 0.634618 -2.088052 1.773413 -2.664457 -5.349097 -0.370198
10.251.43.115:50010 1.607916 1.543338 -0.349860 0.645759 0.733509 -2.537001 1.388586 -2.627679 -5.264819 -0.214715
10.251.37.240:50010 1.468449 1.461376 -0.140130 0.848281 0.584570 -2.242579 1.801817 -2.295463 -4.939988 -0.405685
205336 -7.737032 -0.679289 -7.298347 -2.327305 1.920484 0.876724 -0.001969 -1.952618 0.660581 -0.413321
/10.251.30.101 7.838116 0.402117 -2.393866 -3.203913 0.242061 2.445568 -2.295886 -3.149440 0.668228 2.338810
/10.251.66.102 7.592725 0.597231 -2.246938 -2.936045 0.265951 1.782119 -1.861116 -3.181786 0.632211 2.176792
/10.251.214.32 7.963313 0.620388 -2.254176 -3.109545 0.418682 1.647501 -2.190030 -3.200011 1.026235 1.927319
/10.251.125.193:50010 6.050133 3.984901 -1.369487 -2.392455 1.986574 -3.276649 1.296568 -2.993847 0.579009 -1.030618
/10.251.215.50 7.735590 0.429972 -2.270646 -2.809881 0.325045 2.067863 -2.134959 -3.178242 0.953429 2.125723
/10.251.75.49:50010 6.011904 3.783772 -1.676328 -2.219141 1.621818 -2.639852 0.921399 -2.952365 0.777930 -0.857777
/10.251.110.68 7.937521 0.707138 -2.218472 -3.212289 0.416734 1.218502 -2.342555 -3.352794 1.029491 1.691501
/10.251.122.79 7.875053 0.507321 -2.454721 -2.865851 0.116609 2.074434 -2.050323 -3.354777 0.834006 2.249021
/10.251.70.5 7.534334 0.371472 -2.091953 -2.897099 0.282751 1.809685 -2.210134 -3.439310 0.840771 1.983781
/10.251.123.195 7.995346 0.534925 -2.424842 -3.160770 0.315437 1.908824 -2.235910 -3.370045 0.692545 2.172380
/10.251.39.64 7.983440 0.491056 -2.238431 -2.919974 0.407747 1.553558 -2.228520 -3.553850 0.822793 2.038313
/10.251.203.4:50010 5.956970 3.652536 -1.583748 -2.280466 1.681892 -2.199028 1.056361 -3.099119 0.448902 -0.581237
/10.251.194.129:50010 6.249502 3.877989 -1.763425 -2.511127 1.687633 -2.605302 1.117354 -2.812913 0.857383 -0.679800
/10.251.109.236:50010 6.302910 3.651957 -1.581202 -2.407115 1.900239 -2.813028 0.764675 -2.975632 0.563375 -0.624893
/10.250.9.207:50010 6.285674 3.695683 -1.570677 -2.535219 1.756521 -2.806449 0.804914 -3.029114 0.806067 -0.685815
/10.251.38.53:50010 5.948653 3.551347 -1.150494 -2.544364 1.993793 -3.106082 1.067795 -3.070357 0.471306 -0.623018
/10.251.199.19 7.958936 0.660449 -2.347148 -3.255937 0.436351 1.531363 -2.477525 -3.245810 1.073854 1.872339
10.251.198.33:50010 1.516755 1.427914 -0.140900 0.746846 0.632990 -2.210475 1.480082 -2.053541 -4.801446 -0.449227
10.251.202.181:50010 1.523534 1.448305 -0.179896 0.696297 0.607675 -2.384876 1.509034 -2.457073 -4.961362 -0.322619
10.251.29.239:50010 1.576205 1.624036 -0.248503 0.411865 0.723425 -2.379095 1.259402 -2.426213 -5.263963 -0.411952
10.251.194.245:50010 1.352615 1.360663 -0.206510 0.979253 0.384352 -2.030791 1.697107 -2.384075 -4.962936 -0.368262
10.251.123.195:50010 1.575133 1.436105 -0.261369 0.395532 0.679997 -2.541555 1.206259 -2.305997 -4.987195 -0.275725
10.251.109.209:50010 1.567289 1.522527 -0.141882 0.851402 0.739600 -2.428321 1.501502 -1.930211 -4.577822 -0.598087
10.251.91.229:50010 1.381668 1.470899 -0.110866 1.108404 0.793733 -2.407016 1.549708 -2.308400 -4.923426 -0.415893
/10.251.71.16 7.786223 0.708679 -2.385944 -3.127392 0.260344 1.471559 -2.231008 -3.130497 1.080732 1.735575
/10.251.30.179 7.723493 0.523170 -2.198111 -2.938985 0.329604 1.855649 -1.954151 -3.380002 0.780626 2.164210
/10.251.67.4 8.179827 0.488024 -2.394188 -3.305923 0.394672 1.767945 -2.531606 -3.186714 1.079391 2.170764
/10.251.194.213 7.817124 0.638732 -2.443047 -3.296237 0.383122 1.456523 -2.382615 -3.413979 0.893320 2.071908
10.251.90.64:50010 1.509106 1.795728 -0.060005 0.687304 0.835945 -2.925413 1.533464 -2.018661 -5.082542 -0.698350
/10.251.214.225:50010 5.742132 4.075069 -1.608519 -2.341308 2.104702 -3.149192 1.262956 -3.222174 0.403015 -0.849988
/10.251.111.80 7.515814 0.324034 -2.341203 -3.075639 0.323426 2.264600 -2.129168 -3.623997 0.258286 2.567125
/10.251.90.64:50010 6.024495 3.895168 -1.653311 -2.525059 1.862094 -2.655135 1.143442 -3.061774 0.283904 -0.467678
/10.251.73.188:50010 5.944116 3.755051 -1.610967 -2.210899 1.786795 -2.733332 1.258727 -2.942406 0.728265 -0.737275
/10.251.26.131:50010 5.998862 3.993550 -1.572925 -2.464542 2.021280 -3.346842 0.997599 -3.071898 0.686586 -0.871839
/10.251.199.150 7.828674 0.702381 -2.107093 -3.055414 0.587107 1.212875 -2.392367 -3.220789 1.149977 1.676054
/10.251.91.15:50010 6.068896 3.905980 -1.542517 -2.392486 2.065324 -2.752426 1.026063 -2.714658 0.662303 -0.668199
/10.250.15.67:50010 5.874641 3.440300 -1.564214 -2.503190 1.702343 -2.724261 0.925067 -3.230124 0.776358 -0.606843
10.251.214.225:50010 1.601828 1.548433 -0.190429 0.772649 0.650067 -2.328882 1.590042 -2.532454 -5.015643 -0.342794
10.250.13.240:50010 1.533329 1.732657 -0.353572 0.332740 0.670599 -2.355381 1.414783 -2.046455 -4.917232 -0.627016
10.251.123.1:50010 1.527009 1.563144 -0.136685 0.961053 0.701782 -2.350800 1.557511 -2.021169 -4.872782 -0.572469
205720 -5.854534 -3.032610 -1.626316 4.472465 4.164132 4.962382 0.338614 -3.558010 2.046714 -2.735360
/10.250.10.6 7.502431 0.936291 -2.308501 -2.962750 0.470440 1.252216 -1.718553 -2.861679 1.120700 1.609650
10.251.71.16:50010 1.557920 1.604343 -0.200540 0.808221 0.711193 -2.534322 1.697957 -2.311821 -5.066905 -0.451371
/10.251.203.4 7.624215 0.422920 -2.243544 -2.734652 0.223686 2.007037 -1.964884 -3.139698 0.926399 2.021388
/10.251.126.255 7.706068 0.660728 -2.331537 -3.135528 0.363658 1.523462 -2.253760 -3.085382 0.738338 1.984338
/10.251.31.180 7.993119 0.389531 -2.436992 -3.313523 0.385835 2.375008 -2.219822 -3.740902 0.503912 2.500331
/10.251.66.192 7.706814 0.768309 -2.353890 -2.996684 0.474293 1.361675 -2.016837 -3.081733 0.962230 1.831623
/10.251.194.245 7.662600 0.453602 -2.275345 -2.828377 0.086081 2.014381 -1.867956 -3.233056 0.826018 1.943488
/10.251.89.155 7.893604 0.447807 -2.171301 -3.113385 0.345445 1.667244 -2.332098 -3.366612 0.824667 2.004037
/10.251.91.159:50010 5.833619 3.762840 -1.474944 -2.405500 1.971422 -2.777220 0.963320 -3.078748 0.411101 -0.592592
/10.251.109.209 7.617951 0.849370 -2.424506 -3.184400 0.511244 1.432515 -2.177360 -3.090387 0.771062 1.979068
/10.250.14.143 7.818842 0.740209 -2.340246 -3.024205 0.326719 1.871159 -1.943222 -3.490491 0.677375 1.989091
/10.250.11.53 7.887665 0.564557 -2.413750 -2.896210 0.286882 1.863134 -2.162879 -3.094348 0.868399 2.125623
/10.250.7.146 7.939975 0.399108 -2.319038 -3.046396 0.346004 1.937739 -2.279296 -3.332805 0.876135 2.118723
/10.251.106.50 7.520140 0.698492 -2.298713 -2.874063 0.393104 2.309391 -1.838601 -3.551633 0.197311 2.329159
/10.250.6.191 7.797317 0.572545 -2.340598 -2.843070 0.122130 1.709016 -1.776760 -3.363287 0.754242 2.121723
/10.251.71.97:50010 5.936160 3.857681 -1.789599 -2.492097 1.704841 -2.804484 1.014806 -3.071385 0.482947 -0.653613
/10.250.15.101 7.711431 0.626205 -2.329304 -3.093019 0.308071 1.664498 -2.032453 -3.317785 0.900204 1.969514
/10.251.127.47:50010 5.972781 3.922470 -1.367564 -2.705470 2.199479 -3.234110 0.831961 -3.194509 0.307151 -0.867323
/10.251.198.33 7.855204 0.661902 -2.252219 -3.302993 0.429833 1.583400 -2.210509 -3.383271 0.717909 1.960498
10.251.193.224:50010 1.720215 1.479233 -0.045534 0.489983 0.785023 -2.449749 1.355937 -2.163660 -4.668110 -0.519677
10.251.109.236:50010 1.638008 1.431886 -0.133646 0.629637 0.771345 -2.661459 1.069620 -1.994567 -4.554540 -0.422687
10.251.39.209:50010 1.380987 1.547191 -0.184170 0.634760 0.920598 -2.254339 1.133326 -2.116107 -5.055270 -0.457413
10.251.214.32:50010 1.812450 1.470269 0.015632 0.897295 0.718723 -2.663881 1.639459 -2.234464 -4.924789 -0.390800
10.250.7.146:50010 1.440498 1.317824 -0.042450 0.746082 0.699568 -2.074222 1.361450 -1.930124 -5.167949 -0.407866
10.250.13.188:50010 1.401690 1.646780 -0.272507 1.050383 0.700569 -1.952915 1.807889 -1.971908 -4.679131 -0.528806
204826 0.006656 0.023946 0.028058 0.005199 -0.035672 0.044582 0.024255 0.000102 0.030692 -0.037419
205718 -5.351303 -3.220382 -0.366174 5.077311 4.167267 4.245915 1.475968 -4.186262 2.053343 -2.923570
/10.251.73.220 7.700018 0.576001 -2.145269 -3.055271 0.329555 1.403210 -2.209550 -3.331918 0.866105 1.770174
/10.251.74.227:50010 5.937419 3.745342 -1.539410 -2.613511 1.926386 -2.944267 0.756759 -3.118748 0.477350 -0.743388
/10.251.43.192 7.775723 0.489148 -2.167854 -3.135336 0.288092 1.783668 -2.049539 -3.663528 0.725244 2.064925
/10.251.42.9:50010 5.860805 3.668593 -1.430067 -2.286170 1.727298 -2.611133 1.098169 -3.056595 0.445772 -0.695318
/10.251.30.6:50010 6.063360 3.991107 -1.450389 -2.416783 2.006399 -3.005827 1.045929 -2.725228 0.699211 -0.813048
/10.251.71.146 7.800669 0.530450 -2.337222 -3.047551 0.322688 1.881282 -2.237065 -3.473860 0.729010 2.159456
/10.251.214.175:50010 6.171109 3.638435 -1.592522 -2.541534 1.799798 -2.566163 0.664599 -2.863115 0.603047 -0.612861
/10.251.199.245 7.583516 0.258226 -2.273781 -2.910541 0.238898 2.019308 -2.131998 -3.505401 0.803920 2.166825
/10.251.107.196:50010 6.042131 3.574509 -1.594520 -2.201848 1.601999 -2.436347 1.195797 -3.087175 0.539858 -0.520029
/10.251.71.240 7.701467 0.411832 -2.343716 -2.680822 0.083851 2.104632 -1.871407 -3.402563 0.794251 2.191955
/10.250.7.230 7.704482 0.514842 -2.056103 -2.928518 0.312887 1.899649 -1.803791 -3.461963 0.508298 2.054601
10.251.195.52:50010 1.385910 1.317927 -0.145679 0.796576 0.575905 -2.180550 1.316605 -2.460781 -4.983223 -0.472898
10.251.107.242:50010 1.479287 1.559383 -0.310924 1.125205 0.651870 -2.529217 1.534936 -2.158743 -4.624604 -0.539773
10.251.70.211:50010 1.529067 1.542732 -0.261481 0.825160 0.536185 -2.169561 1.845671 -2.434960 -5.384282 -0.287896
10.250.10.213:50010 1.364678 1.252979 -0.105074 0.817910 0.502751 -2.079774 1.529771 -2.199508 -4.824266 -0.326284
10.251.106.37:50010 1.285230 1.301635 -0.202959 0.876731 0.607011 -2.319308 1.225007 -2.012603 -4.568806 -0.701444
10.251.73.220:50010 1.440485 1.518669 -0.076177 1.150982 0.682528 -2.350424 1.840194 -2.446055 -5.236385 -0.327038
10.251.123.132:50010 1.527344 1.326217 -0.299207 0.560248 0.506449 -1.819545 1.428936 -2.338107 -5.160361 -0.160852
10.251.126.22:50010 1.479155 1.550792 -0.125667 0.992891 0.608223 -2.220248 1.688744 -2.191847 -4.914635 -0.386261
10.250.6.214:50010 1.535613 1.212144 -0.056828 0.639422 0.648887 -2.263768 1.069456 -2.126671 -4.510294 -0.493980
10.251.203.129:50010 1.371148 1.481242 -0.183481 0.806699 0.658384 -2.088842 1.575108 -2.208624 -5.162675 -0.291079
204516 -1.876881 -5.686911 2.834389 -6.442971 0.089651 2.351266 5.812816 3.474148 1.143216 -0.102017
152 -1.442607 -0.580628 -3.199134 1.387463 -3.546327 -0.562490 5.834887 10.328311 0.239035 -2.056504
/10.251.203.129 7.543722 0.331871 -2.326862 -2.771106 0.061354 2.050079 -2.033434 -3.411851 0.648865 2.245478
157 -2.319389 -1.684329 -2.425152 2.469641 -4.342798 1.038475 6.838234 10.364705 -1.263896 -2.027516
/10.251.126.227 7.768140 0.808910 -2.456276 -3.036014 0.277460 1.628593 -2.027748 -3.245121 0.780588 1.986360
/10.251.215.70 7.664161 0.533799 -2.331374 -2.995184 0.423744 2.263663 -1.912483 -3.757702 0.128339 2.535364
/10.251.127.191:50010 6.031732 4.126313 -1.443713 -2.374287 1.982461 -3.166253 1.478320 -3.137976 0.363961 -0.856675
/10.251.35.1 7.601202 0.364439 -2.156011 -2.786869 0.206057 2.165423 -1.868757 -3.495509 0.439711 2.226026
/10.250.10.144 8.122730 0.195282 -2.333422 -2.943793 0.112303 2.158742 -2.193655 -3.424671 0.948828 2.346985
/10.251.214.112:50010 6.050664 3.614804 -1.611534 -2.436739 1.729930 -2.665035 0.934127 -3.012509 0.515298 -0.533444
/10.251.75.143:50010 5.751743 3.841291 -1.679293 -2.585392 1.882165 -2.956455 0.975628 -3.146288 0.486378 -0.757708
/10.251.91.15 7.526290 0.655753 -2.246238 -3.150536 0.440569 1.463096 -2.002943 -3.281271 0.795845 1.984262
/10.250.7.32 7.554939 0.733943 -2.233280 -3.095408 0.459752 1.445856 -2.149459 -3.554638 0.809215 1.835681
/10.251.122.65:50010 5.903333 3.789180 -1.293453 -2.388422 1.914463 -2.907011 1.280510 -3.229499 0.381813 -0.746712
/10.250.14.38:50010 5.950812 4.029932 -1.523871 -2.350293 1.858084 -3.213138 1.273009 -3.016786 0.729200 -1.166540
/10.251.91.84 7.663940 0.605509 -2.229683 -2.911948 0.147723 1.780002 -1.822578 -3.356537 0.813481 1.981946
/10.250.15.198:50010 5.865294 3.510458 -1.531291 -2.413274 1.831959 -2.579163 0.642656 -2.901184 0.645103 -0.660780
/10.250.15.67 7.621598 0.410912 -2.298316 -3.106510 0.273720 1.744017 -2.132775 -3.647900 0.733454 2.162827
10.250.11.53:50010 1.515800 1.798708 -0.152567 0.751502 0.804733 -2.655471 1.558130 -1.878555 -4.839526 -0.776717
10.251.215.192:50010 1.396641 1.421866 -0.040776 0.681305 0.688661 -2.575066 1.339342 -2.125069 -4.772540 -0.538873
10.251.125.174:50010 1.484891 1.539050 0.080556 0.835164 0.908192 -2.723600 1.611233 -2.119590 -4.666639 -0.645888
10.251.195.33:50010 1.472191 1.450156 -0.079549 1.098679 0.803847 -2.553798 1.515195 -2.147194 -4.918176 -0.472598
10.250.6.4:50010 1.436338 1.468427 -0.044628 0.996294 0.678457 -2.504600 1.495770 -1.749404 -4.496918 -0.730929
10.251.110.160:50010 1.286987 1.229528 -0.105625 0.973286 0.471924 -1.819382 1.648510 -1.872451 -4.833107 -0.381997
/10.250.11.100:50010 5.916416 3.808232 -1.327944 -2.040498 1.645308 -2.698349 1.414568 -2.621697 0.652907 -0.594408
/10.250.19.227 7.801920 0.379420 -2.298854 -3.460483 0.423796 1.957044 -2.354552 -3.677297 0.670911 2.203236
/10.251.75.49 7.835090 0.464946 -2.252246 -3.035612 0.248990 1.759473 -2.111662 -3.278349 1.126420 1.880920
/10.251.42.246 7.939513 0.346619 -2.402592 -3.092990 0.234130 1.992013 -2.150504 -3.383797 0.946705 2.302391
/10.251.214.130 7.470260 0.668827 -2.367027 -3.096777 0.319690 1.473520 -2.128598 -3.317863 0.838302 1.963979
/10.251.107.242 7.839201 0.444965 -2.359939 -3.074277 0.272572 1.562653 -2.299908 -3.392480 1.049638 1.978766
/10.251.43.147:50010 5.947056 4.038773 -1.366410 -2.214123 2.118392 -3.073775 1.309119 -2.947284 0.597983 -0.958452
/10.250.10.100:50010 5.871645 3.602604 -1.563646 -2.538650 1.858417 -2.333075 0.817640 -3.218071 0.375674 -0.447137
/10.251.66.3:50010 5.914567 3.801769 -1.358115 -2.424918 2.207957 -2.865032 0.960726 -3.342120 0.314554 -0.786462
/10.251.39.242 7.914154 0.308093 -2.420106 -3.461608 0.325372 1.867105 -2.520240 -3.320670 0.822364 2.187815
/10.251.26.131 7.728940 0.498332 -2.330904 -3.104074 0.398175 1.635103 -2.311639 -3.551330 0.852271 2.148847
/10.250.11.85 7.605120 0.690515 -2.214940 -2.724531 0.183497 1.409988 -1.930508 -3.127149 1.042645 1.682929
/10.251.39.209:50010 6.053890 3.930021 -1.596791 -2.569346 1.929256 -3.077064 0.978403 -2.984833 0.551694 -0.809430
/10.251.70.112 7.839319 0.676935 -2.368026 -3.375435 0.589306 1.808996 -2.295237 -3.472559 0.662887 2.185331
/10.251.123.1:50010 6.333043 3.906870 -1.536193 -2.722831 1.863264 -2.864330 1.054738 -2.927046 0.810841 -1.028706
/10.251.26.177:50010 6.289824 3.702403 -1.596144 -2.499001 1.888867 -2.849093 0.787981 -3.180370 0.570699 -0.662656
/10.251.202.209:50010 5.947533 3.855769 -1.540787 -2.389406 1.798330 -3.081830 1.095367 -3.146341 0.672825 -0.852386
/10.251.91.32:50010 6.096910 3.868195 -1.485701 -2.678618 2.136139 -2.986455 0.826393 -2.786589 0.570271 -0.661359
/10.250.6.223:50010 6.008907 3.462716 -1.619605 -2.090705 1.547147 -2.191177 1.219735 -2.807112 0.568930 -0.323994
10.251.38.197:50010 1.361714 1.581980 -0.156537 0.919089 0.722618 -2.544821 1.550810 -2.155918 -5.205037 -0.517219
10.251.90.239:50010 1.542885 1.496873 -0.016044 0.781133 0.866399 -2.373840 1.604781 -2.337374 -4.812912 -0.510898
10.250.18.114:50010 1.434288 1.586995 -0.230964 0.710411 0.902863 -2.523465 1.359675 -1.981088 -4.805272 -0.451911
10.251.43.21:50010 1.400694 1.398747 -0.055393 0.874719 0.636324 -2.056360 1.453222 -2.263518 -4.949555 -0.604761
10.251.215.50:50010 1.608190 1.439286 -0.225480 0.978791 0.783574 -2.224117 1.412656 -2.127333 -4.932967 -0.193855
10.251.127.243:50010 1.513760 1.382462 -0.056568 0.978739 0.696797 -2.504079 1.412612 -2.149656 -4.586572 -0.642161
10.251.199.245:50010 1.443718 1.421776 -0.219768 1.101189 0.754869 -2.318019 1.429140 -2.114792 -5.098047 -0.253706
10.251.42.246:50010 1.488037 1.255583 -0.180758 0.959192 0.687165 -2.276915 1.369046 -2.238213 -4.685311 -0.250275
10.251.35.1:50010 1.513962 1.237675 0.035222 0.853052 0.657062 -1.944361 1.587070 -2.140121 -5.251776 -0.259711
10.251.39.242:50010 1.629038 1.462216 -0.166311 0.722204 0.763937 -1.992676 1.526815 -2.295095 -4.962992 -0.209422
10.250.10.144:50010 1.468812 1.122074 -0.105422 0.942322 0.674641 -2.264999 1.265939 -2.022480 -4.626082 -0.349172
/10.251.197.226 7.630122 0.765370 -2.124011 -2.638223 0.264545 1.285264 -1.857097 -2.789334 1.291328 1.580787
/10.251.43.115 7.477953 0.578987 -2.189169 -3.166746 0.440906 1.448066 -2.071315 -3.216826 0.792438 2.047410
/10.251.214.18 8.212901 0.434888 -2.552512 -3.470429 0.354540 1.835152 -2.568688 -3.438249 0.951651 2.284471
/10.251.74.227 7.745719 0.540884 -2.334732 -3.214211 0.321498 1.569233 -2.281968 -3.474230 0.813429 2.043174
/10.251.194.129 7.870366 0.555706 -2.468835 -2.962939 0.090702 2.072866 -1.936304 -3.251645 0.805707 2.162369
/10.251.215.192:50010 5.993874 4.041601 -1.476338 -2.360229 2.031395 -3.171969 1.233186 -3.102317 0.716906 -1.147910
/10.251.195.33:50010 5.917222 3.995558 -1.465952 -2.061427 1.929869 -3.134905 1.441015 -3.145366 0.698166 -0.961524
/10.251.71.97 7.560519 0.510810 -2.379582 -2.865378 0.271181 1.921785 -2.006040 -3.276974 0.633872 2.186917
/10.250.10.223 7.751914 0.267598 -2.605131 -3.123918 0.185619 2.710903 -2.134005 -3.727509 0.155525 3.001538
/10.250.11.194 8.098598 0.495715 -2.459697 -2.910831 0.088692 2.066566 -2.079252 -3.013471 1.125890 2.182076
/10.251.107.98:50010 6.040924 3.738019 -1.484639 -2.413221 1.934818 -2.458627 0.904322 -2.904151 0.497584 -0.659556
/10.250.10.213 8.007971 0.110467 -2.366144 -3.170770 0.027711 2.234291 -2.362317 -3.449799 0.841209 2.321172
/10.251.199.86:50010 6.045732 3.872976 -1.542573 -2.349805 1.810195 -2.907198 1.221276 -3.163110 0.447498 -0.790738
10.251.194.213:50010 1.384510 1.291780 -0.187154 0.488050 0.605394 -2.396763 1.403092 -2.640750 -4.993198 -0.364848
10.251.43.210:50010 1.650133 1.513617 -0.117081 0.575548 0.743415 -2.485634 1.438492 -2.247443 -4.966988 -0.418745
10.251.199.19:50010 1.578381 1.664923 -0.207818 0.646487 0.754782 -2.463347 1.386807 -2.338139 -4.903891 -0.440086
10.251.42.207:50010 1.552974 1.635760 -0.112464 0.835729 0.969545 -2.547994 1.658629 -2.382006 -4.792573 -0.427169
10.250.14.143:50010 1.276661 1.320142 -0.128860 0.854003 0.662296 -2.232504 1.317880 -2.175252 -4.536520 -0.594896
10.251.106.50:50010 1.328008 1.639717 -0.237683 0.776038 0.731017 -2.022139 1.491961 -1.822580 -4.895898 -0.602964
10.251.90.134:50010 1.412074 1.451608 -0.146204 0.972713 0.752252 -2.201387 1.549343 -2.364337 -5.106259 -0.310357
10.251.75.228:50010 1.567529 1.762150 -0.311164 0.747342 0.826699 -2.349347 1.613867 -2.449191 -5.129548 -0.376361
10.251.107.98:50010 1.464720 1.372423 0.038430 0.665131 0.861701 -2.274142 1.360068 -2.131737 -5.012614 -0.432377
10.250.15.101:50010 1.378012 1.393847 -0.131765 0.827736 0.752656 -2.719445 1.444572 -2.089042 -4.715923 -0.545417
205146 -4.737253 -3.440826 -4.358262 -0.582512 -4.165771 4.047017 1.947917 -2.110203 3.081725 -3.601342
205729 -5.159817 -2.701692 -2.406222 3.893954 3.471100 4.695795 -0.010081 -3.146438 1.448790 -1.818599
205848 -5.668420 -1.942015 -2.697420 3.426325 7.811886 2.416612 1.104109 2.027025 2.535968 1.011687
/10.251.125.193 7.649244 0.687798 -2.157005 -3.200042 0.447928 1.452505 -2.055337 -3.426508 0.738737 1.874630
/10.250.19.16 7.832702 0.401454 -2.328803 -2.978538 0.222183 1.619549 -2.393553 -3.062002 1.390851 1.821012
/10.251.214.175 7.795472 0.528984 -2.313848 -3.288880 0.322724 1.812582 -2.229924 -3.256498 0.768238 1.971815
/10.251.75.79 7.507895 0.774706 -2.264783 -3.031378 0.426065 1.681623 -2.023480 -3.124253 0.831096 1.860210
/10.251.67.225:50010 6.034174 3.501883 -1.447716 -2.364184 1.607738 -2.615918 0.920984 -2.837387 0.803811 -0.858725
/10.251.194.147:50010 5.751362 3.809095 -1.475274 -2.291267 2.000341 -2.821941 1.155331 -2.991764 0.310689 -0.747434
/10.251.90.64 7.681485 0.635700 -2.492951 -3.100600 0.210496 1.738677 -2.351059 -3.230781 0.887035 1.847902
203535 -7.171648 -2.106505 -4.760072 -7.051683 -1.719154 -0.524971 5.067366 2.695680 -1.441454 0.761624
/10.251.126.22:50010 6.127677 3.725638 -1.426908 -2.369166 1.863656 -3.169003 1.159658 -2.915031 0.906209 -0.917522
/10.251.127.47 7.357545 0.741587 -2.138557 -3.057963 0.501299 1.179265 -2.110340 -3.514778 0.641579 1.853113
/10.250.14.38 7.919746 0.612376 -2.230266 -2.855524 0.151622 1.419393 -2.020389 -3.117238 1.195168 1.799406
10.251.126.5:50010 1.470158 1.009329 0.076121 0.648446 0.459501 -2.126453 1.393052 -2.440742 -5.098069 -0.317746
10.251.71.68:50010 1.456476 1.578628 -0.272730 1.012509 0.737458 -2.668025 1.492678 -2.561543 -5.122959 -0.446827
10.250.15.67:50010 1.381221 1.336986 -0.204189 0.731934 0.584681 -2.378090 1.343383 -2.046785 -4.868699 -0.489555
/10.251.202.134:50010 6.236584 3.301591 -1.634772 -2.293137 1.453869 -2.372063 0.676018 -2.739480 0.774981 -0.328119
/10.251.42.9 7.621225 0.432052 -2.215680 -2.900855 0.141140 2.083631 -2.056637 -3.389367 0.734207 2.052792
/10.251.73.188 7.599195 0.560756 -2.258967 -2.765156 0.385123 1.846004 -1.989610 -3.210650 1.021350 1.882909
/10.250.9.207 7.938836 0.565313 -2.451215 -3.107550 0.293102 1.841392 -2.182286 -3.187879 1.171585 2.043802
/10.251.107.196 7.994376 0.395967 -2.396373 -3.025169 0.127251 2.090174 -2.118609 -3.505607 0.842138 2.239559
/10.251.39.144 7.879594 0.874721 -2.342792 -3.049363 0.537071 1.591859 -1.993563 -3.198255 0.887582 1.927828
/10.251.25.237:50010 6.212546 3.732073 -1.678943 -2.370038 1.644562 -2.587176 1.138100 -3.014664 0.638232 -0.574110
/10.251.203.179 7.596457 0.637753 -2.172050 -3.170861 0.533822 1.502495 -2.216114 -3.404496 0.547815 2.016097
10.251.127.191:50010 1.521772 1.484586 -0.049797 0.608657 0.742933 -2.635976 1.386518 -1.932692 -4.614758 -0.577127
10.251.74.192:50010 1.504737 1.343845 -0.039700 0.525587 0.957196 -2.349860 1.222161 -2.419397 -5.069107 -0.313982
10.251.110.68:50010 1.427872 1.502139 -0.093231 0.746613 0.810040 -2.598408 1.315596 -2.148674 -4.874681 -0.573966
10.251.26.177:50010 1.577814 1.567292 -0.292349 0.690099 0.681549 -2.405649 1.402633 -2.652846 -5.142099 -0.304880
10.251.67.211:50010 1.544632 1.596783 -0.285355 0.377432 0.783969 -2.264201 1.296386 -2.398970 -5.029326 -0.406037
204700 -3.444778 -0.922199 -0.338233 -4.827965 6.014855 4.012495 4.718825 5.978607 0.745606 0.249461
205441 0.007007 0.026262 -0.036655 -0.021904 0.005450 0.015990 0.015549 0.002638 0.027429 0.021049
/10.250.11.100 7.252329 0.873836 -2.103130 -2.355807 0.184190 1.580375 -1.240636 -2.582098 1.068544 1.788514
/10.251.30.85 7.494657 0.652744 -2.075583 -3.095208 0.584368 1.493002 -1.962317 -3.906933 0.350286 2.032143
/10.251.214.225 7.470727 0.740838 -2.173270 -2.973035 0.431136 1.640139 -2.058757 -3.214965 0.726042 1.835122
/10.251.66.3 7.766670 0.742590 -2.313517 -3.165716 0.618467 1.726859 -2.256835 -3.687090 0.439159 2.118552
/10.251.215.192 7.627568 0.740471 -2.217736 -3.071089 0.424263 1.458302 -2.193086 -3.168667 0.983750 1.623446
/10.251.109.236 8.058227 0.594941 -2.370179 -3.114880 0.392626 1.616557 -2.254178 -3.358424 0.957203 1.967299
/10.251.91.159 7.447966 0.425955 -2.106206 -3.151203 0.364308 2.052814 -2.044391 -3.429896 0.544931 2.108240
/10.250.15.198 7.722493 0.594289 -2.441020 -3.238922 0.499585 2.042348 -2.213022 -3.603077 0.460318 2.258111
/10.251.38.53 7.790498 0.322745 -2.096045 -3.072129 0.324349 1.660140 -2.167067 -3.560755 0.670575 2.121809
/10.250.7.96:50010 5.968663 4.132621 -1.267828 -2.551286 2.167490 -3.280777 1.190277 -3.110583 0.418972 -1.042239
/10.251.70.37:50010 5.761150 3.775139 -1.455963 -1.918589 1.590105 -2.859450 1.646276 -2.786528 0.650131 -0.778723
10.251.194.102:50010 1.382368 1.672256 -0.142461 0.847046 0.889009 -2.621458 1.358386 -2.236858 -4.960362 -0.692908
10.251.122.65:50010 1.583234 1.096579 0.019960 0.702517 0.616541 -2.148389 1.407466 -2.379371 -5.188831 -0.165002
/10.251.30.6 7.638778 0.593091 -2.123914 -2.918859 0.397111 1.691174 -1.954663 -3.314299 0.772723 2.028062
/10.251.43.147 7.536370 0.885092 -2.126457 -2.870824 0.580818 1.651029 -1.759467 -3.627171 0.486480 1.979463
/10.251.75.143 7.635535 0.658908 -2.319280 -3.137518 0.387289 1.516087 -2.157833 -3.346980 0.782836 2.071677
/10.251.107.98 7.894667 0.480859 -2.271617 -2.937153 0.439560 1.773332 -2.254299 -3.157800 0.884403 2.189293
/10.251.202.209 7.412391 0.732919 -2.436281 -3.234522 0.434904 1.732036 -2.006820 -3.715450 0.473724 2.048160
/10.251.199.86 7.537751 0.729159 -2.150088 -2.893025 0.447370 1.191921 -2.060482 -3.167290 1.052449 1.711760
10.251.125.193:50010 1.483883 1.428630 -0.083902 0.833275 0.756173 -2.476614 1.515299 -2.270015 -4.820002 -0.403169
10.251.91.15:50010 1.540380 1.679518 -0.224171 0.723871 0.794174 -2.414120 1.517560 -2.251625 -4.897883 -0.573627
10.251.31.160:50010 1.553077 1.734787 -0.173487 0.739909 0.792439 -2.604366 1.588469 -2.181129 -5.046602 -0.412818
10.251.194.147:50010 1.456241 1.497874 -0.305873 0.922331 0.565258 -2.120204 1.638419 -2.394249 -4.958615 -0.372539
203730 -5.091924 -8.348358 -0.147408 -4.030572 -4.485828 -2.415303 3.965302 -2.617169 1.034097 0.862683
204742 -4.216429 0.328845 -0.834314 -2.872187 6.401578 3.984248 3.586985 4.008465 1.335215 -1.407222
205347 -7.823243 -0.747159 -7.603379 -2.084284 2.659242 0.358355 -0.286549 -1.310466 1.247324 0.109936
210052 -0.020767 -0.037047 0.045508 -0.039632 -0.031552 -0.028227 0.003717 -0.035451 -0.003958 0.013893
blk_-3544583377289625738 -4.891544 -4.500421 1.997152 -3.542920 -3.763996 -2.260495 9.071040 -1.555289 1.847874 -5.818992
/10.251.127.191 7.853221 0.703348 -2.163782 -3.154772 0.388331 1.652346 -2.088014 -3.328235 0.922849 1.985162
/10.251.195.33 7.722190 0.380845 -2.232914 -2.830649 0.183947 1.574118 -2.400050 -3.272899 1.280633 1.765083
/10.250.10.100 7.405600 0.591155 -2.212334 -3.180353 0.480457 1.835844 -1.921395 -3.575577 0.409467 2.128979
/10.251.198.196 7.778545 0.452488 -2.606880 -3.149856 0.095604 2.205657 -2.116072 -3.428733 0.610732 2.336480
/10.250.6.223 7.800082 0.157890 -2.467782 -2.584534 0.061094 2.301495 -2.062081 -3.257548 0.946759 2.550660
10.250.10.223:50010 1.486946 1.375700 -0.293149 0.438634 0.694043 -1.782705 1.169345 -2.487583 -4.861946 -0.266455
10.251.214.130:50010 1.410370 1.696992 -0.235900 0.914645 0.943939 -2.732449 1.440642 -1.965791 -4.480380 -0.670298
10.251.125.237:50010 1.509725 1.386993 -0.117749 0.725477 0.745222 -2.660651 1.107891 -2.102160 -4.781212 -0.436938
10.251.38.53:50010 1.402960 1.678322 -0.126737 0.816051 1.047939 -2.489533 1.372070 -2.357689 -5.214159 -0.467544
10.251.111.80:50010 1.394437 1.249865 -0.209498 0.728780 0.494435 -1.929647 1.380238 -2.158704 -5.166368 -0.279261
/10.251.202.134 7.878071 0.375047 -2.326443 -2.999400 0.198992 1.933021 -2.170345 -3.466277 0.911500 2.194102
204430 -1.594116 -7.269402 4.122909 -4.000459 1.840282 1.814702 4.162943 0.442311 1.414057 1.386209
204658 -3.500879 -0.518835 -2.111035 -5.827817 4.504764 3.266172 2.956767 5.608977 1.829811 -0.268514
205719 -5.262269 -2.883838 -0.623866 4.604633 3.957673 4.447339 1.768392 -3.857726 2.444966 -3.405586
10.251.89.155:50010 1.664039 1.541128 0.107441 0.690191 0.940735 -2.489518 1.368131 -2.297409 -4.838031 -0.681958
10.250.7.244:50010 1.531195 1.583382 -0.135651 0.576981 0.820858 -2.734691 1.384613 -2.277162 -4.789117 -0.610338
/10.251.214.112 7.917204 0.250916 -2.308638 -3.133887 0.219796 1.941646 -2.489026 -3.212584 1.047210 2.183251
/10.251.203.246:50010 5.899197 3.342149 -1.686981 -2.609624 1.587938 -2.544756 0.556223 -2.832171 0.695133 -0.479490
/10.251.91.32 7.747632 0.977131 -2.179560 -2.997211 0.557504 1.261069 -2.056181 -3.426870 0.673813 1.847041
/10.250.7.96 7.517920 0.866734 -2.037704 -3.011331 0.533074 1.440904 -1.915383 -3.203914 0.607525 1.775904
10.251.203.179:50010 1.665333 1.441580 -0.202558 0.411496 0.923934 -2.655164 1.160107 -1.915235 -4.742954 -0.322951
10.251.215.70:50010 1.573026 1.521969 -0.355665 0.473709 0.867070 -1.964072 1.150306 -2.149788 -4.945059 -0.228534
10.251.71.97:50010 1.551814 1.573277 -0.135448 0.542471 0.826256 -2.506677 1.382286 -2.306128 -5.147360 -0.452441
10.251.127.47:50010 1.496166 1.513206 -0.128898 0.810219 0.635888 -2.527352 1.355519 -2.101700 -4.735464 -0.691548
10.250.14.38:50010 1.388483 1.725383 -0.060608 0.973593 0.715444 -2.762858 1.566593 -1.944011 -4.302646 -1.112255
/10.251.123.1 7.989796 0.596528 -2.269462 -3.154909 0.247196 1.556716 -2.210706 -3.132361 1.161445 1.717241
/10.251.39.209 7.804727 0.354032 -2.359922 -3.178520 0.378901 2.132358 -2.461154 -3.156986 1.002850 2.137981
/10.251.106.214:50010 5.647534 3.792349 -1.451571 -2.259993 1.807774 -2.710893 1.363317 -2.839161 0.405644 -0.882055
10.250.10.100:50010 1.671036 1.372305 -0.216331 0.327979 0.698330 -2.262922 0.969874 -2.142792 -4.786381 -0.398364
10.251.201.204:50010 1.199776 1.556758 -0.312208 0.972356 0.626875 -2.211721 1.718391 -2.433757 -4.813313 -0.439895
10.250.6.223:50010 1.364784 1.386054 -0.241522 1.166211 0.529110 -2.002021 1.686952 -2.062875 -4.758808 -0.361966
10.250.7.96:50010 1.436993 1.535985 -0.011383 0.738552 0.785959 -2.619907 1.457808 -2.102884 -4.979207 -0.697731
10.251.202.209:50010 1.322349 1.602818 -0.173777 0.859416 0.685098 -2.269695 1.510853 -2.181021 -5.012926 -0.678521
203814 -5.251484 -7.728063 -1.446640 -4.567164 -1.813704 -5.532371 0.737380 -0.522469 1.966566 2.692486
/10.251.194.147 7.927734 0.349650 -2.546460 -2.956373 0.106691 2.480025 -2.103487 -3.761810 0.618624 2.457130
/10.251.26.177 8.021933 0.608901 -2.307633 -3.237280 0.527722 1.657879 -2.273292 -3.260961 1.081239 1.908424
10.251.65.237:50010 1.663945 1.294704 -0.102802 0.476602 0.546674 -1.859299 1.300435 -2.157201 -4.974084 -0.361428
10.251.107.50:50010 1.557534 1.296889 0.075519 0.785674 0.631781 -2.517518 1.341646 -2.022593 -4.366788 -0.665027
10.251.67.225:50010 1.456397 1.277235 -0.088741 0.879325 0.429255 -2.409055 1.482396 -2.385566 -4.794857 -0.433627
10.250.9.207:50010 1.530093 1.447995 -0.164993 0.743699 0.669848 -1.993417 1.544041 -2.093195 -4.639365 -0.353537
10.251.202.134:50010 1.548321 1.097856 0.021389 0.516015 0.709890 -2.464043 0.969890 -2.471846 -4.845821 -0.392144
204239 -4.524647 -6.849322 0.130576 0.759138 6.991766 1.322332 -1.177259 0.547358 -1.368148 6.747818
/10.251.122.65 7.671099 0.568884 -2.089630 -3.126895 0.448021 1.539605 -2.177900 -3.219258 0.989043 1.838433
10.251.91.32:50010 1.542575 1.639259 -0.062323 0.876632 0.903098 -2.480205 1.358330 -2.125935 -4.642610 -0.720686
10.251.199.150:50010 1.456148 1.621482 0.059635 0.865674 1.011486 -2.799918 1.403576 -1.735261 -4.551300 -0.837942
10.251.214.112:50010 1.551613 1.308467 -0.015951 0.387473 0.728532 -2.290217 1.184581 -2.349186 -4.907336 -0.429598
10.251.106.214:50010 1.372479 1.369033 -0.256494 0.776153 0.622038 -2.048177 1.358164 -1.880080 -4.586942 -0.556113
10.251.198.196:50010 1.476802 1.189431 -0.137378 0.757099 0.587438 -2.041565 1.390591 -2.183890 -4.856161 -0.181964
203628 -6.372483 -3.550903 -3.022353 -4.039456 -3.899675 0.277514 6.009700 -0.531825 -1.475303 0.125712
204538 -2.465695 -5.461351 1.475778 -8.026479 -0.842866 3.537156 4.727787 3.075399 0.794153 -0.909978
/10.251.67.225 7.681666 0.487795 -2.348923 -3.100165 0.081746 1.744690 -2.211499 -3.256938 0.950999 1.891390
/10.251.25.237 7.979817 0.575908 -2.281884 -2.944186 0.350030 1.775186 -2.017775 -3.489338 0.991185 2.049935
10.251.31.180:50010 1.636312 1.394250 -0.318747 0.438357 0.661165 -2.362662 1.127286 -2.449432 -4.968234 -0.293517
10.251.38.214:50010 1.545159 1.482102 -0.223064 0.669573 0.657380 -2.094006 1.547231 -2.307048 -5.347833 -0.161307
10.250.15.198:50010 1.417962 1.447783 -0.130790 0.677437 0.792249 -2.450166 1.170057 -2.115333 -4.681075 -0.595298
204611 -1.339361 -3.392037 0.422544 -6.238591 1.976043 2.899235 4.511761 6.506839 1.866775 1.100076
/10.251.42.16:50010 5.880758 3.749019 -1.267928 -2.266566 1.962888 -2.600078 1.254376 -2.980302 0.115534 -0.592867
/10.251.203.80:50010 6.019717 3.717457 -1.700561 -2.369080 1.678741 -2.750541 1.126305 -2.691068 0.663949 -0.588626
10.251.25.237:50010 1.749011 1.487147 -0.190755 0.652740 0.607227 -2.295327 1.529162 -2.390668 -4.787706 -0.312726
10.250.19.227:50010 1.620716 1.388107 -0.046335 0.257033 0.901838 -2.469438 0.952448 -2.121436 -4.819845 -0.519605
10.251.214.175:50010 1.693388 1.342765 0.032585 0.713567 0.687666 -2.457036 1.410236 -2.119166 -4.993130 -0.412359
204857 -2.871701 -5.034012 3.101077 -1.082114 7.102446 8.799092 0.330396 1.313364 0.501037 -1.795468
/10.251.203.246 7.668956 0.391386 -2.365766 -3.049289 0.232988 2.038568 -2.179624 -3.724407 0.657203 2.169953
/10.251.203.166:50010 5.843388 3.812808 -1.492312 -2.597132 1.960409 -3.113808 0.982374 -3.020397 0.512923 -0.885442
/10.251.70.37 7.449810 0.413320 -2.118128 -2.918381 0.254955 1.708409 -1.855915 -3.228832 0.922897 2.028636
10.251.26.131:50010 1.566600 1.387821 -0.118066 0.622506 0.782847 -2.399946 1.209718 -2.177343 -4.932185 -0.466046
10.251.126.255:50010 1.536607 1.264751 0.053356 0.831081 0.654483 -2.478357 1.398235 -1.925413 -4.819207 -0.597791
/10.251.106.214 7.541942 0.568121 -2.532208 -2.860493 0.206263 2.498630 -1.739611 -3.507287 0.257642 2.486548
10.251.203.246:50010 1.355726 1.378164 -0.338206 0.741062 0.674916 -2.308307 1.219645 -2.507191 -4.590792 -0.434365
10.251.30.134:50010 1.487967 1.525630 -0.374274 0.617342 0.854243 -2.060731 1.349109 -2.029422 -5.047741 -0.203753
10.251.70.112:50010 1.682757 1.498250 -0.148200 0.429196 0.755300 -2.305258 1.279832 -2.064617 -4.630624 -0.349700
204047 -5.003278 -2.622072 -4.438487 -1.224905 4.465996 -0.825811 2.488882 4.223618 0.012024 6.147198
/10.251.126.22 7.850430 0.405339 -2.351006 -2.989705 0.135148 1.727817 -2.219637 -2.957494 1.032726 2.024461
10.251.66.3:50010 1.595125 1.673426 -0.027972 0.491700 1.050697 -2.745030 1.174993 -2.399013 -5.054481 -0.633857
/10.251.203.166 7.550467 0.615213 -2.329664 -3.200851 0.319265 1.981214 -2.141278 -3.559987 0.500850 2.170641
203751 -5.435909 -7.561233 -0.999397 -4.337469 -3.085768 -4.680221 2.802163 -1.566610 1.563962 1.822121
205605 -5.595160 -5.697630 -0.168754 -0.465278 5.961629 0.362182 -2.162633 -6.103977 3.063290 -0.496582
205829 -5.908825 -2.377029 -4.709996 2.571435 6.901168 2.180685 -1.509300 1.184826 3.155156 1.121714
/10.251.42.16 7.380602 0.887797 -2.322647 -3.127603 0.432335 1.934703 -1.600266 -3.872005 0.001454 2.201726
/10.251.203.80 7.994012 0.334377 -2.589228 -2.833267 -0.058273 2.366643 -2.075552 -3.032572 1.047735 2.316751
204058 -5.300436 -2.120878 -4.227450 -0.925300 4.763592 -0.883045 2.672212 4.432039 -0.188993 5.546869
205758 -5.994478 -2.369864 -3.568189 4.050671 5.367754 3.928483 -1.039310 -1.283057 1.334027 -0.484581
/10.251.107.227:50010 5.505827 3.639197 -1.516435 -1.889759 1.858552 -2.778788 1.377361 -3.130782 0.298356 -0.533920
10.251.74.227:50010 1.445392 1.502037 -0.057959 0.697296 0.874499 -2.659428 1.246481 -2.275372 -4.902396 -0.558840
156 -2.044489 -1.607772 -2.349910 2.467236 -4.152547 0.501970 6.541105 10.318180 -1.163595 -1.593748
203534 -6.806487 -1.585972 -4.695759 -6.792642 -1.284024 -0.191610 5.267447 3.186205 -1.664573 0.888805
10.251.107.227:50010 1.565879 1.373246 -0.190029 0.613343 0.696945 -2.369128 1.319768 -1.987244 -4.608557 -0.400078
204201 0.046375 -0.013911 -0.021799 0.016145 -0.003424 0.017418 -0.035025 0.008852 0.048438 -0.020296
204620 -1.927757 -2.734373 -0.612554 -7.034601 1.969459 3.812025 3.247828 5.579130 1.617140 0.480921
204819 -0.045392 -0.019569 0.020859 0.037685 -0.021265 0.019670 0.019839 0.010957 -0.037665 -0.008571
205635 -5.472564 -3.859461 0.553414 1.225524 4.769184 1.678090 0.591059 -6.206165 2.449263 -3.228308
/10.251.107.50:50010 5.787174 3.666375 -1.413575 -2.491886 1.916883 -2.922317 1.004835 -2.868879 0.739235 -0.875614
10.251.203.80:50010 1.598360 1.269791 -0.019671 0.978656 0.610573 -2.164706 1.514325 -2.114241 -4.867314 -0.308336
204133 -4.791374 -0.889103 -3.079970 -0.420828 4.717024 0.216014 4.434609 3.561083 -1.101739 4.513979
204642 -2.832450 -1.962381 -0.064748 -6.690629 3.827280 4.057860 4.910470 6.554521 1.142076 -0.453907
203615 -6.017945 -2.473918 -2.484710 -3.474806 -2.180473 0.203610 6.976290 -0.446738 -2.178573 1.054652
205937 -3.703537 -2.558837 -1.091121 3.193312 5.992087 2.414194 3.356198 0.369224 3.638203 0.785302
203810 -5.190353 -7.078814 -1.156904 -4.250019 -1.498735 -5.395881 1.501628 -1.778890 1.771691 2.087789
151 -1.207052 -0.374157 -3.371029 1.093394 -3.585503 -1.388475 5.129026 10.000484 0.083094 -1.827169
/10.251.107.227 7.367958 0.237558 -2.232187 -2.698138 0.140783 2.303674 -2.125980 -3.482251 0.634521 2.285987
204149 -0.034103 -0.025066 0.004584 -0.009731 0.005795 -0.041734 0.034570 -0.031819 0.020010 -0.007915
204729 -3.590624 0.337931 -0.223494 -2.790174 6.040287 3.504562 5.102839 4.645509 1.291556 -1.315008
205157 -4.996619 -3.095913 -5.863545 -1.285530 -4.151524 4.406394 1.455372 -1.084811 2.509652 -2.522609
158 -1.951477 -1.714674 -2.144978 2.704985 -4.124938 0.898581 6.673765 9.603353 -1.309515 -1.434476
10.251.42.16:50010 1.698318 1.257957 -0.078792 0.594468 0.695158 -2.099830 1.266437 -2.177521 -5.010226 -0.333881
203929 -3.682281 -5.515669 -1.761518 -1.652419 1.275097 -3.619977 2.871922 2.892231 2.064682 5.508940
204555 -2.106323 -3.979661 0.785752 -7.551273 0.072476 2.886715 4.900483 4.829577 1.232785 -0.478783
204953 -3.747606 -3.347497 1.701696 -2.906802 2.942472 5.869588 1.721852 -0.462210 3.028945 -6.636299
205523 -6.888092 -5.998699 -4.751686 1.692730 3.717038 -2.369596 -2.991284 -5.183567 3.811585 2.416593
10.251.203.166:50010 1.415506 1.553713 -0.222762 0.478484 0.729934 -2.492372 1.190087 -2.049069 -4.704541 -0.655150
204255 -3.607210 -7.655135 0.903204 1.098413 5.611075 1.194771 -0.911384 -0.718796 -0.481621 6.356256
205322 -7.156791 -2.821034 -6.727103 -1.645528 -0.079730 -0.653342 -0.107534 -3.174119 1.295540 0.443094
204409 -1.064639 -7.234469 3.583247 -1.151447 3.028246 2.662965 3.108427 0.276616 2.366804 2.449766
204737 -4.662931 0.063928 0.576093 -2.269900 6.798505 4.051963 5.538743 4.193130 0.236936 -1.641692
205821 -5.425900 -2.431062 -4.078022 2.229202 6.460020 2.604599 -2.031059 0.458092 2.730348 0.779054
10.251.30.85:50010 1.792629 1.388620 -0.183559 0.141774 0.825043 -2.481814 0.965341 -2.413907 -4.830385 -0.287473
/10.251.107.50 7.376546 0.423313 -2.026641 -3.005782 0.304272 1.686960 -1.972047 -3.443625 0.474589 2.044101
204551 -1.904866 -4.003898 0.501498 -6.703203 -0.560391 3.241421 5.176917 4.521637 1.197676 -0.019481
204554 -1.937932 -4.102725 0.921381 -6.887447 0.003868 3.806522 5.453413 5.045470 0.846200 -0.206820
204619 -2.721941 -2.385770 -0.800101 -7.237479 0.496966 3.812674 4.290069 4.489693 1.052446 -1.128743
205119 -4.699567 -2.635265 -3.402939 -0.701504 -3.717453 5.007546 3.346298 -1.102177 2.724802 -4.884847
204818 -0.006622 -0.043690 0.041660 -0.045030 0.012817 -0.015388 0.048453 -0.020195 0.016730 -0.029567
203815 -4.869024 -7.445985 -1.534189 -4.657700 -1.559797 -5.492422 0.580624 -0.090656 1.734503 3.002934
204723 -4.917659 0.541184 -1.448316 -4.872628 7.030790 2.831983 4.066705 4.562748 1.747512 -1.611620
204731 -4.478383 0.769038 -0.735477 -3.373270 5.697308 3.645086 5.291937 3.921379 0.787456 -1.906382
205927 -4.519932 -2.640984 -0.974065 3.270752 7.191800 2.176661 2.448475 0.988016 2.723015 0.968067
204621 -2.837423 -2.643754 -1.026538 -7.990400 1.455168 3.518953 4.248756 6.042802 1.640124 -0.725271
204901 -2.510827 -5.186453 3.127089 -0.738714 5.746637 8.753352 0.463463 0.879334 0.863872 -2.042893
205413 -8.676328 0.023443 -6.491728 -0.752212 3.965792 -0.555908 1.385859 -1.929546 1.185176 -0.415630
205528 -6.283537 -5.318831 -3.371134 -2.270021 4.541699 -1.383764 -4.020344 -4.879891 3.501030 0.720631
205616 -5.474673 -4.604617 -0.167687 0.567941 4.763944 1.019649 -0.615816 -6.151729 3.148565 -2.582098
204110 -5.965936 -1.304596 -4.340401 0.612103 5.954752 -0.135549 3.475114 3.504255 -0.456130 5.142003
204544 -2.395542 -4.272062 0.427895 -7.714032 -0.885800 3.159555 5.006539 4.258283 0.976079 -0.547325
204630 -2.173641 -2.565873 -0.238297 -6.896909 3.361122 1.760567 4.196026 6.783620 1.954481 1.242656
204655 -3.156597 -1.173175 -0.446977 -5.734182 5.980901 3.445675 3.391371 6.208957 1.454749 -0.201217
204720 -3.298506 -0.558333 0.486277 -3.670667 6.263635 3.480011 5.033087 5.280839 0.999547 -0.682731
204735 -4.199235 -0.033190 1.434374 -1.951630 6.931944 3.951507 6.822345 4.508137 0.276321 -1.647091
205554 -5.135131 -5.932488 0.305238 -1.073345 5.840867 -0.374119 -2.132314 -5.826510 4.039425 -1.228203
204618 -2.193301 -2.853775 -0.126232 -6.648862 1.265953 4.540977 4.278186 5.636082 1.270338 -0.542943
204626 -2.464365 -1.849108 -0.968631 -6.209319 2.693092 3.706287 4.830590 6.799509 1.957238 -0.179671
204701 -3.141520 -0.802938 -0.098611 -3.796856 5.462619 4.067691 4.963458 5.854026 1.008698 -0.019803
205117 -4.450567 -2.257511 -3.719846 -0.133498 -2.851893 4.775047 2.625285 -1.079960 3.216650 -4.977056
159 -2.129643 -1.964799 -1.762343 3.008400 -4.298966 1.519791 7.026476 9.620754 -1.237485 -1.782201
204328 -2.135405 -7.304450 3.352985 -1.217169 5.566180 -0.038142 1.238695 1.152420 1.713668 3.961838
204005 -3.139415 -4.567603 -2.317685 -2.756120 1.355375 -1.958866 2.916858 4.156643 0.795045 5.892011
204659 -3.593393 -0.547850 -1.139035 -4.962445 5.570950 3.978258 4.902286 6.138829 1.281867 -0.150852
205106 -3.663012 -1.642366 -3.335437 -1.872197 -1.922958 5.042017 2.096457 0.074627 2.901445 -4.725820
205150 -4.046377 -2.877782 -4.372910 -1.130668 -3.488601 4.964905 1.645197 -1.478206 2.244773 -2.716505
205317 -7.161904 -2.344445 -6.476550 -2.636009 0.253204 0.374016 -0.755943 -3.435597 0.848962 -0.581732
205813 -5.593374 -2.522715 -4.209965 3.492492 5.628748 3.792877 -1.407853 0.594954 1.665308 0.969223
210028 -3.828719 -2.641777 -0.311489 2.908740 6.158530 3.138103 4.982671 -0.404519 3.393762 0.236110
205633 -5.652241 -4.310319 0.150172 1.909025 4.788799 3.115910 -0.283233 -5.805933 2.219589 -2.667439
204751 -3.892556 -0.518661 0.545635 -1.905021 7.372629 4.649036 3.968222 4.219885 0.293411 -0.938866
205020 -3.627155 -2.905978 0.324777 -1.335767 0.630299 5.858388 2.791383 -0.730314 3.205437 -6.659777
205042 -4.659974 -1.537562 -2.627423 -0.538773 -0.976113 5.859057 3.319051 0.128022 2.899338 -6.410549
204021 -3.837079 -3.762465 -3.677637 -1.989914 2.461312 -0.753718 2.841002 5.273909 0.810191 6.305823
204216 0.019095 -0.013957 -0.022101 -0.005849 -0.008585 0.003358 0.012183 0.040422 -0.043198 0.014912
204917 -3.398419 -4.308343 2.163826 -2.871000 6.164192 7.376897 -0.374930 0.180113 1.370206 -3.499798
205845 -5.366766 -1.635627 -3.772420 2.182335 6.849191 3.462020 -0.271251 2.233799 1.719080 0.982531
204756 -3.866042 -1.362820 0.646500 -3.733151 5.587799 3.242316 3.534411 2.615755 -1.159882 0.424210
205428 -7.697729 -0.985235 -6.229678 -1.024915 4.343023 0.089662 -0.418995 -1.332934 1.896903 0.648566
205516 -0.041754 -0.035561 0.015317 0.021107 0.009326 0.041570 0.044376 -0.027104 -0.048871 -0.042531
205800 -6.423473 -2.625421 -4.011964 4.285726 6.205609 2.961951 -1.084227 -0.867680 1.695514 0.825224
205855 -4.625185 -2.261436 -2.045872 2.629999 7.339156 2.673647 1.268973 2.087482 2.967780 1.066373
204506 -1.925275 -6.613029 3.155037 -6.149777 0.371215 2.505631 4.734889 1.824206 0.541088 0.647586
205408 -8.090727 0.094463 -7.244042 -1.020372 2.946356 0.171289 1.573175 -0.755085 0.968818 0.361117
203851 -4.385557 -5.857593 -2.576139 -2.463413 -0.173636 -5.049288 1.421366 1.487273 2.475174 4.249602
204303 -3.420534 -6.545889 2.673795 0.192103 6.947233 -0.406925 1.285548 0.558797 0.362881 4.652226
204436 -1.247435 -7.807157 3.507640 -4.514993 0.538149 2.620554 3.511300 1.133833 2.110002 1.435648
204602 -1.873903 -3.244254 -0.775675 -6.303790 -1.012274 3.614400 5.251233 5.487709 1.867873 -0.178582
210022 -3.802034 -2.046897 -0.843051 2.658132 5.783460 3.068122 4.999347 -0.015168 2.544369 0.491060
204507 -1.429654 -6.291936 2.781732 -6.013882 -0.493408 2.931854 4.970602 2.704645 1.383069 0.167460
204951 -3.578458 -3.314732 1.232712 -3.522218 2.544576 6.224591 1.439438 -0.476932 2.175931 -5.866254
205118 -4.161738 -2.431107 -3.383690 -1.954862 -3.108967 4.805094 2.539734 -0.809257 2.604028 -4.788217
205943 -3.499810 -3.040399 -0.316885 2.650755 6.582445 2.467297 3.685263 0.401341 3.962003 0.570852
204344 -2.179489 -7.527124 3.915590 -1.284852 5.207568 -0.258779 2.205913 -0.088115 2.982455 2.491487
579 -2.197576 -1.708782 -1.049242 -1.506428 0.506815 -1.071261 -2.366072 9.472795 -4.744383 -3.595496
204852 -2.961723 -4.500898 2.670870 -2.203329 7.614557 8.236358 0.261623 1.493286 0.370724 -1.399094
205005 -4.411109 -1.681385 -0.566551 -2.170630 2.411251 6.339346 2.109733 0.427685 2.145254 -6.356331
205921 -4.312271 -2.488218 -0.833012 3.408745 6.915867 2.968288 2.957944 0.958975 2.124792 0.965205
204200 -0.020383 0.045491 -0.029742 0.023717 0.026547 -0.004771 0.038525 -0.025716 -0.039706 -0.042046
562 -1.612771 -2.949727 -0.202675 -2.476727 -1.534327 -1.038599 -2.000578 9.217195 -4.322641 -3.923543
205611 -5.322048 -4.345771 -1.003801 -0.307753 4.299784 0.818427 -1.687853 -5.975560 2.542812 -1.163461
205619 -5.928508 -4.073252 -0.485588 1.057581 5.075552 1.077725 -0.486473 -6.204327 2.337675 -1.927260
210037 -4.053547 -2.301393 -0.427033 2.955539 5.863078 2.695557 5.201065 -0.620516 2.462256 0.332840
203739 -4.762263 -6.693024 -1.430500 -3.756006 -3.956404 -3.183985 3.380415 -1.352076 1.364483 1.358511
204031 -4.071002 -3.112839 -4.048493 -2.260744 2.794483 -0.805587 2.020661 4.188447 0.545091 5.815813
204431 -1.368833 -7.231652 3.857905 -3.972048 0.940251 2.345044 4.385147 1.190502 1.749615 1.141292
204549 -2.231696 -4.014255 0.196569 -7.567859 -0.757547 3.158300 5.384678 4.588678 1.197556 -0.449199
204843 -2.597704 -4.934819 3.382459 -1.745302 8.535200 9.031519 1.020190 2.732733 0.583362 -0.854711
204850 -2.191540 -4.998701 3.650602 -0.892629 8.028299 8.625020 1.071078 2.973153 0.955053 -1.248994
204915 -2.674721 -4.136433 2.676464 -1.352541 5.852794 7.425486 0.495475 0.594390 1.624893 -3.390527
205559 -4.222563 -6.720499 0.431452 0.439681 4.697624 0.551680 -1.603228 -5.726461 3.697858 0.229401
204518 -1.419960 -5.681529 2.752754 -5.472375 0.041956 3.221124 5.117766 2.857738 0.877960 0.398371
204623 -2.144463 -2.674732 -1.072974 -7.875467 1.763637 2.601861 2.674838 5.505175 1.943077 -0.016998
204702 -3.425893 -0.593802 -0.421376 -4.829034 6.035612 3.462921 4.817689 5.738649 1.215994 -0.210216
204846 -3.236963 -4.096784 2.787829 -2.075313 8.632834 8.035460 0.991079 2.063907 0.701417 -1.697967
205540 -5.077316 -7.077650 -1.430783 -1.567344 4.351236 0.299663 -4.062844 -5.176721 3.288301 1.662911
210114 -0.038419 0.026454 0.004614 -0.009529 -0.012875 -0.004961 -0.022723 -0.029958 0.032297 -0.046825
203948 -3.160133 -4.443802 -2.447704 -1.689099 0.853265 -2.132055 3.370788 3.579940 1.543865 5.582588
204059 -5.648788 -1.645028 -4.489449 -0.911747 4.935615 -0.603224 2.892936 4.204154 -0.308766 5.243708
205420 -7.938148 -0.274518 -6.325498 -1.927845 4.297504 -0.638977 0.507167 -1.472901 1.664511 -0.115832
205738 -4.933452 -2.848207 -2.415537 4.223022 4.333127 5.051329 -0.440631 -2.054157 1.551077 -1.032410
205923 -4.173546 -2.096959 -1.519693 2.494251 6.567069 2.514268 2.753927 1.513346 2.427348 1.116534
210038 -4.334873 -1.983832 -1.232632 2.728615 5.855483 2.596806 5.434993 -0.462737 3.396968 0.127971
204020 -3.314343 -3.753868 -2.528774 -1.959680 2.440703 -1.244381 3.481022 4.782463 0.552998 6.006869
205252 -6.034059 -3.133270 -6.722880 -2.006612 -2.108253 1.369072 -0.290976 -2.575463 1.996554 -0.439911
205421 -7.666654 -0.343908 -6.184791 -1.309001 4.833356 -0.120636 0.191118 -1.338504 1.509126 0.679076
205716 -6.362825 -1.879765 -2.094174 4.025893 3.887468 3.666875 1.848874 -4.401528 1.269495 -3.401623
1055 -0.368218 -2.645641 -3.080219 6.382699 -3.156454 1.700687 3.530166 7.548647 4.851850 -3.082604
205827 -5.676330 -2.909475 -3.621327 3.357124 6.694286 3.232530 -0.955533 1.005253 2.488443 1.170717
205859 -4.413335 -1.593770 -2.516044 2.197932 6.769426 1.900407 0.993642 1.714231 3.250149 0.852255
203532 -6.446981 -0.905035 -4.302244 -5.894912 -0.790753 -0.363746 6.053132 2.650705 -1.266754 0.471716
203650 -5.487583 -4.839856 -1.827618 -2.409457 -4.174409 -0.916405 7.022317 -1.823817 0.077808 0.823813
205154 -5.158680 -3.775286 -4.598500 0.014530 -4.140528 3.307326 2.033310 -3.106234 2.985086 -3.393985
205509 0.045203 -0.041646 -0.044846 0.004036 -0.023346 0.045934 -0.026822 0.002992 0.009766 -0.035530
205907 -4.455214 -2.655304 -2.373436 2.496000 6.643307 2.693818 1.025560 1.471316 3.211799 1.461139
203533 -6.601470 -1.338397 -4.021556 -6.072875 -0.999863 -0.565456 5.853793 2.473882 -1.654350 0.737056
204410 -1.345345 -7.061895 3.760624 -1.368208 2.951862 1.502091 3.271211 -0.163547 3.300157 1.428879
563 -1.473303 -2.951828 0.053573 -2.564623 -1.002072 -1.766118 -2.022096 9.184879 -4.671750 -3.668768
204636 -2.467019 -1.415909 -0.767394 -5.236441 2.414424 4.101489 4.803427 5.142148 0.746224 0.114121
204820 0.027228 0.039720 -0.047830 0.044337 0.022644 0.049467 0.036502 0.020930 -0.031842 -0.030141
203619 -5.858368 -2.835670 -2.388258 -3.484541 -2.557146 -0.199018 7.004411 -0.715143 -1.469726 0.774475
423 -1.221041 -6.155455 4.276561 4.140991 2.744632 -3.524175 -2.368542 4.464418 -4.199741 -1.391201
204505 -1.481526 -6.212729 3.003151 -5.380850 0.219478 3.204599 4.800524 1.871312 0.414066 0.921584
204527 -1.951427 -5.750170 2.281960 -6.954866 -0.744455 2.341682 5.343701 3.363677 1.893843 -0.836926
204709 -3.497448 -0.020300 -0.868114 -3.299911 5.137435 4.580418 5.299568 5.454673 1.215910 -1.102069
204754 -3.298835 -1.196205 2.123052 -1.537749 6.867348 4.374413 4.131694 4.415499 0.553912 -1.516066
204930 -3.464259 -3.325347 2.701463 -1.857466 5.154346 6.122204 1.556807 -0.235568 1.899345 -5.169470
205115 -4.292303 -2.472759 -3.256663 -3.233976 -3.078929 4.877635 2.490388 -0.510980 2.332335 -4.632789
205227 -4.763203 -4.396458 -5.471075 -0.629094 -3.745073 2.301173 0.372817 -2.788403 2.770886 -0.651827
205259 -6.006964 -3.037640 -7.134926 0.033425 -1.555709 1.597449 0.168373 -2.370876 2.004838 0.913498
958 -2.746568 -3.078994 -0.985734 6.643321 0.745410 -1.408663 -4.420789 3.110753 -0.628249 -7.469888
205732 -6.067111 -2.100208 -2.138344 5.064058 4.050949 4.753512 1.686455 -2.902957 1.330478 -2.538177
205922 -3.969924 -2.729782 -1.019237 2.884278 7.140557 2.323172 2.262126 1.536922 3.238957 1.025343
188 -0.366967 -4.122063 1.089798 4.991409 -5.267940 0.841522 6.502151 5.259384 2.012632 -4.658619
203813 -4.974484 -6.691924 -1.804635 -4.474033 -1.834797 -5.333076 1.076932 -0.016737 2.460527 2.001473
203949 -2.846235 -5.723402 -1.940628 -1.942839 0.834456 -1.823284 2.465001 3.456013 1.653955 6.174320
204038 -4.137261 -2.747020 -3.949693 -1.401792 3.542930 -0.690542 2.698083 4.171013 0.428869 5.930875
204406 -1.350297 -6.348995 3.607498 -1.917278 3.174244 1.458772 3.287537 0.306584 1.876407 2.000956
204435 -0.693507 -7.058221 3.497745 -2.742596 0.997449 2.330722 4.432577 2.242873 2.316425 2.229556
204806 -0.007330 -0.008363 -0.045181 0.001820 -0.017969 0.041423 0.003409 -0.017485 -0.025385 -0.007521
205034 -3.942659 -0.439261 -2.511148 -2.678094 0.276946 6.412752 3.200927 1.879239 2.092411 -5.494815
205109 -3.766292 -2.196785 -2.559935 -1.928381 -2.350345 4.921233 2.893785 -0.918110 2.846443 -5.183889
1001 -0.599897 -0.697622 -2.596625 4.783964 -0.368098 -1.325458 -1.665111 6.324365 0.396478 -4.185727
971 -2.412206 -3.341540 -1.376126 7.407956 0.892436 -1.406288 -4.431808 4.220522 0.265076 -6.809813
160 -1.899258 -1.822449 -1.335239 3.090539 -4.052346 1.654466 6.921861 8.929891 -1.485964 -1.935112
203715 -4.946458 -6.657402 -2.449852 -2.961548 -5.471963 -1.408393 4.723689 -0.804758 1.367401 1.613547
203727 -5.079450 -7.195787 -0.998880 -4.035856 -4.475363 -2.660212 3.895098 -1.335522 1.405785 0.705134
203852 -4.303762 -5.622671 -2.025704 -2.404161 0.146172 -4.939354 2.304529 1.952344 2.344887 4.312125
203901 -3.263272 -6.073591 -0.806191 -2.373651 0.384705 -4.035994 2.900950 2.839573 2.355804 4.856435
203931 -3.453194 -4.559566 -2.439154 -1.262620 0.392067 -2.762827 4.129076 3.478755 2.006953 5.274927
588 -2.946222 -1.411374 -1.461769 -0.882458 0.809950 0.268384 -2.234859 8.628914 -4.559739 -3.904055
205054 -4.486527 -2.088855 -3.260015 -1.426706 -2.141872 5.920882 2.432345 0.044633 2.593402 -5.603033
205116 -3.705936 -3.887662 -1.902364 -4.166522 -2.883818 4.488824 1.388722 -1.710165 3.149044 -4.952301
205437 -0.010632 0.009843 -0.045016 0.022908 0.021210 0.040001 0.014023 -0.007433 -0.039038 -0.017635
988 -1.943381 -3.211876 -1.949815 7.521649 1.442849 -1.251331 -3.616976 5.821922 0.651121 -4.959058
205656 -5.998047 -2.718026 0.008892 3.001477 4.260316 3.171556 2.253534 -5.667945 1.666742 -4.099390
205816 -5.217853 -1.985956 -3.706307 3.401383 5.252685 3.875151 -0.540818 0.299916 1.086169 0.695872
203718 -5.177247 -7.509012 -1.242255 -3.993329 -5.323023 -1.551033 4.027987 -1.538132 0.941371 0.633203
203744 -4.747340 -6.454871 -1.426842 -3.687771 -3.741365 -3.368256 3.663545 -0.748601 1.418625 1.685013
204249 -3.150216 -6.802366 0.932701 1.429569 4.657397 1.842840 0.311495 -0.782910 -1.566251 6.330490
204338 -1.965383 -7.234324 3.491902 -0.917887 4.716883 0.190372 1.866998 -0.043363 2.191051 3.299595
204625 -1.319670 -2.686120 0.425251 -5.771203 2.722677 3.206485 3.622343 5.729344 1.613613 0.876311
676 -2.418582 -4.117873 2.921234 -0.284134 1.965888 0.107207 -4.787541 3.515406 -3.568427 -8.276080
204734 -3.973592 -0.228858 0.980891 -1.641213 6.518140 4.364768 5.658984 5.057685 0.691827 -1.794400
204800 -0.039334 0.020412 -0.035266 -0.012740 0.005936 0.039192 0.008685 0.037340 0.036459 0.000648
205736 -5.858086 -2.309549 -2.218029 4.038587 4.939644 4.263462 -0.182364 -2.547587 1.318332 -2.190108
205823 -4.688648 -3.630646 -1.381830 3.827926 7.514223 4.083151 -1.019172 0.239700 2.298367 0.634657
205849 -4.578863 -2.538997 -1.883591 3.603511 7.022514 3.355327 0.974963 2.311371 2.345288 1.136501
205915 -3.940771 -2.468679 -1.454436 2.082513 7.004753 2.710816 1.439457 1.967302 2.989204 1.000306
205929 -4.210042 -2.381933 -1.331649 2.517141 6.864354 2.479118 3.408953 1.722096 3.208211 0.919365
205936 -3.849076 -2.935085 -0.656911 3.303121 6.353556 2.309174 3.330337 0.442704 3.526786 0.834521
205956 -3.911738 -2.900812 -1.006330 3.126125 6.172276 2.900771 3.642564 0.187510 3.105325 0.811453
210009 -3.803181 -2.679010 0.032444 3.127882 6.131306 3.167067 4.757141 0.068501 2.653944 0.345537
210035 -3.871639 -2.441643 -0.538373 2.926317 5.683557 3.013051 5.326103 -0.576085 2.883861 0.452511
161 -2.083486 -1.452325 -1.571519 3.134179 -3.876736 1.895392 7.310120 8.739729 -1.244163 -2.138651
203759 -4.832885 -6.570167 -1.505135 -3.845445 -2.655871 -4.557364 2.546537 -1.405586 1.651215 1.898259
203930 -3.179936 -4.805324 -1.932236 -1.588321 0.594089 -3.047284 3.743221 3.679474 1.956130 5.241349
569 -1.969093 -2.464387 -0.456847 -2.427152 -0.930271 -0.821148 -1.805852 9.118179 -4.606643 -4.122399
574 -1.519452 -1.874210 -0.512785 -1.506480 -0.062340 -1.308941 -1.771187 9.580912 -4.151844 -3.900407
204639 -3.268461 -1.577982 -0.532089 -6.452978 3.454091 4.063330 5.178208 5.552842 0.322563 -0.069494
204926 -3.302940 -3.478519 1.903947 -4.651468 5.844201 5.311534 -0.031077 0.069794 2.240500 -3.916086
205035 -4.522222 -1.789955 -2.097510 -1.717520 -0.859618 5.637043 3.056179 -0.145904 2.697882 -6.294251
810 -4.466594 -4.069617 -4.321540 1.305076 -4.762981 -4.404161 -3.938061 3.776220 -2.878635 -3.466621
205218 -4.192475 -4.423147 -4.423718 -0.522406 -3.601039 3.081571 0.121532 -3.188680 2.718021 -1.164850
899 -2.867288 -3.903891 -0.723966 2.853693 0.542487 -4.784015 -6.288946 1.178099 -2.940174 -3.681150
205531 -5.208878 -5.995522 -2.756253 -1.204736 4.693848 -0.635600 -3.834595 -4.755967 3.160762 2.491179
1035 -0.550414 -2.105159 -3.164920 6.758538 -2.205454 0.810392 2.555164 7.936713 3.752106 -2.879128
205725 -5.097570 -2.843832 -2.777485 3.872660 3.576336 5.399757 -0.384242 -2.814621 1.401862 -1.223532
252 0.184179 -5.038484 0.013929 7.160517 -0.807301 -5.232131 -0.168600 1.952828 5.646175 -2.673051
203923 -3.029489 -5.264969 -2.062487 -1.692282 0.021168 -2.939867 2.635221 2.195380 2.199329 4.914868
577 -2.331889 -1.891941 -0.987578 -1.307444 0.450252 -0.497414 -2.392546 8.769616 -4.914369 -3.242717
204648 -2.693222 -1.335150 -0.453980 -5.508110 3.931866 4.342286 3.920563 5.815151 1.049632 -0.688074
665 -2.580193 -4.431054 3.066566 -1.380001 2.742105 -1.131842 -5.125616 2.976312 -4.044898 -6.688778
204825 0.010095 0.006645 -0.006125 -0.000407 -0.032672 0.004381 0.018930 -0.035045 0.038721 -0.004427
204927 -3.740540 -3.132800 1.314845 -3.641511 5.684864 6.016374 -0.298884 0.119838 2.265897 -4.709302
205422 -7.846829 0.040423 -6.470059 -0.944613 4.136391 0.249799 1.060802 -0.949424 1.063594 0.581319
205657 -5.435114 -2.607837 -1.140620 3.216668 3.947262 4.087693 0.895631 -4.555877 1.849538 -3.209754
205735 -5.534863 -2.279961 -3.081494 4.295656 3.735954 4.577241 0.265454 -2.473587 1.431960 -1.665601
182 -0.660211 -3.255591 1.022556 5.056602 -4.507471 1.514122 7.224852 5.485266 1.166608 -4.348794
223 1.007767 -6.560810 2.145708 4.528748 -4.293023 -4.347722 1.924121 2.010640 5.564279 -5.400139
203627 -6.054354 -3.003762 -2.466443 -3.314710 -3.093789 -0.090833 6.694263 -0.687173 -1.361654 0.232727
203631 -5.894508 -3.348607 -3.046967 -2.481410 -3.945152 0.623654 6.549862 -1.428560 -0.658280 0.310537
203731 -5.196130 -6.913122 -1.922868 -4.195510 -4.598114 -3.023568 3.315831 -0.799955 1.377548 1.237481
204008 -3.074921 -4.671298 -2.465517 -2.588297 1.341557 -1.980911 2.381315 3.924875 1.247113 5.844388
204354 -1.378398 -6.564540 3.126899 -1.245557 3.010801 2.455117 2.999089 -0.004635 0.564627 3.358631
548 -0.943319 -4.207601 1.039946 -2.473771 -2.943403 -1.577423 -1.215730 8.715158 -3.813158 -4.318273
204512 -2.146938 -5.995414 2.725277 -6.952610 -0.467521 2.073886 5.202404 1.862116 1.439006 -0.916397
599 -3.126884 -0.367612 -1.962953 -0.544098 0.962615 -0.660120 -1.460668 7.971564 -3.810844 -4.010156
589 -2.556502 -1.179719 -1.176104 -0.846130 1.085401 -0.562984 -1.894640 9.043176 -4.440892 -3.974850
644 -2.111533 -4.365587 2.707518 -1.096635 2.084090 -2.064325 -4.924575 3.841851 -5.111970 -4.117262
793 -3.908486 -4.912574 -2.922408 2.490716 -5.711393 -3.529725 -3.283609 2.624280 -3.000675 -4.236150
957 -2.902166 -2.988355 -1.072941 6.454461 1.403317 -1.272867 -4.716842 3.205175 -0.910078 -7.328541
205615 -5.405936 -4.270594 -0.427009 0.855778 5.732448 1.159590 -1.270399 -5.619113 3.144827 -2.005461
205802 -5.459950 -2.677559 -3.167144 3.712878 5.884335 3.997201 -1.312411 -0.454150 1.682048 -0.103413
210023 -3.828889 -1.821685 -1.115010 2.469473 5.648843 2.422097 5.135939 0.074313 3.313566 0.281751
185 -0.602533 -3.925765 1.140111 5.259924 -4.965616 1.499864 7.108315 5.334214 1.538733 -4.197460
203629 -5.948342 -3.796300 -2.663430 -3.001342 -4.205780 0.618211 6.242043 -1.120730 -1.084631 0.212218
203726 -4.870834 -6.700019 -0.712990 -3.658151 -4.277271 -2.234568 4.541014 -1.615852 1.308946 0.550746
203933 -3.145351 -5.080203 -2.076861 -2.317461 0.290290 -2.711565 3.099474 3.421206 1.513038 5.482045
203935 -3.030046 -4.921511 -2.158275 -1.863640 0.586126 -2.530120 3.282789 3.799315 2.124742 5.460577
204215 -0.012308 -0.021214 -0.009998 -0.045967 0.046634 -0.012199 -0.030499 -0.021278 0.009579 -0.016759
464 -0.473724 -7.865747 6.144816 2.909989 0.572770 -1.154584 -0.947656 1.157633 -0.142091 -5.241934
204224 -3.273552 -4.708152 0.623949 2.113799 7.253224 1.707224 1.635730 3.520584 -0.699992 5.791503
556 -1.300645 -2.985059 0.200187 -2.040110 -1.904935 -0.926281 -1.631131 8.856100 -4.310565 -4.126460
204631 -2.194194 -1.826179 -0.239308 -5.773100 2.500734 2.462713 5.137832 6.187660 1.637286 0.190059
204730 -4.388023 0.629912 -1.005007 -2.947463 5.955760 2.734575 4.941198 4.742931 1.236148 -1.096489
205451 -0.009335 0.018404 0.011481 0.035789 -0.013773 -0.030882 -0.013806 -0.011104 -0.003268 -0.001555
